#include <stdio.h>
#include <stdlib.h>
#include <string.h>
#include <conio.h>
#include <tgi.h>
#include <peekpoke.h>


int main (void) {
	int i=0;
	int j=0;
	int c = -128;
	
	
	static char curr = 0;	// Current char being pressed selected
	static char idx = 0;	// Feature being selected
	static unsigned char pot = 0;	// Direct pot reading
	static int value = 0;	// Adjusted value of the sensor reading
	
	static int temp = 0;
	static int mean = 0;
	static const unsigned char Palette[2] = { TGI_COLOR_WHITE, TGI_COLOR_BLACK};
	//static const unsigned char Palette2[2] = { TGI_COLOR_BLUE, TGI_COLOR_RED};	
	
	// Next we want to hold our weights for the neural network
	
	// This is for 22 by 25 image
	static const int w0[] = {-56, -51, -67, -113, -114, -117, -114, -117, -112, -114, -107, -103, -96, -89, -87, -83, -78, -71, -68, -71, -73, -70, -73, -64, -67, -59, -57, -54, -38, -21, 0, 31, 65, 82, 96, 100, 107, 108, 112, 113, 109, 110, -90, 38, 5, -63, -109, -114, -113, -116, -117, -115, -116, -111, -107, -105, -95, -90, -82, -79, -75, -72, -69, -75, -72, -66, -68, -69, -64, -58, -58, -50, -41, -27, -4, 33, 66, 81, 92, 101, 105, 110, 110, 113, 112, 112, -96, 37, -31, -61, -108, -114, -115, -115, -118, -117, -113, -109, -109, -102, -94, -89, -78, -77, -72, -71, -66, -70, -63, -67, -72, -71, -71, -60, -61, -47, -40, -28, -16, 19, 60, 86, 90, 104, 106, 112, 112, 115, 114, 110, 26, 36, -69, -21, -110, -113, -115, -117, -114, -114, -114, -110, -106, -96, -93, -81, -71, -67, -73, -66, -69, -67, -67, -61, -64, -68, -66, -64, -59, -54, -55, -44, -16, 2, 36, 70, 93, 100, 104, 112, 113, 113, 117, 114, -92, 36, -2, 74, -108, -114, -115, -116, -113, -116, -115, -111, -104, -92, -85, -73, -66, -68, -64, -67, -61, -55, -58, -61, -58, -62, -62, -56, -58, -62, -53, -50, -27, -6, 31, 62, 82, 99, 103, 110, 111, 114, 116, 115, 112, 40, -107, -108, -109, -116, -119, -118, -113, -115, -111, -108, -103, -98, -85, -68, -65, -63, -63, -62, -56, -60, -54, -56, -51, -58, -60, -57, -63, -59, -59, -49, -38, -22, 6, 28, 63, 83, 97, 107, 113, 117, 115, 111, 110, 40, 59, -104, -109, -113, -118, -113, -114, -110, -112, -107, -107, -98, -95, -91, -85, -80, -77, -64, -63, -56, -54, -57, -50, -51, -51, -61, -57, -51, -55, -50, -57, -51, -19, 7, 34, 63, 80, 94, 106, 115, 115, 115, 109, 37, 23, -100, -108, -114, -112, -113, -108, -106, -104, -102, -105, -97, -96, -92, -89, -83, -81, -73, -67, -58, -59, -59, -46, -54, -52, -58, -55, -51, -56, -46, -32, -12, 7, 29, 45, 68, 79, 86, 100, 113, 116, 112, 114, 36, -91, -103, -108, -107, -108, -105, -98, -97, -92, -92, -91, -82, -82, -76, -75, -81, -77, -75, -59, -59, -41, -45, -30, -36, -49, -53, -51, -32, -14, -6, 0, 13, 35, 47, 59, 76, 78, 85, 94, 102, 107, 109, 110, -8, 72, -97, -100, -93, -99, -97, -99, -96, -93, -75, -68, -62, -53, -46, -42, -51, -67, -83, -76, -61, -52, -37, -24, -10, -24, -16, 0, 25, 12, 41, 46, 49, 62, 65, 78, 82, 87, 89, 93, 101, 103, 105, 110, -83, 4, -90, -88, -90, -101, -106, -111, -102, -98, -85, -70, -57, -48, -42, -51, -51, -60, -75, -88, -87, -65, -43, -24, -5, 11, 26, 30, 51, 66, 61, 61, 66, 67, 74, 81, 89, 98, 101, 103, 106, 105, 103, 108, 113, 0, -89, -84, -96, -107, -109, -111, -108, -102, -88, -72, -60, -36, -39, -47, -55, -74, -91, -100, -104, -80, -50, -17, 17, 56, 70, 70, 71, 63, 60, 49, 41, 45, 60, 77, 87, 103, 108, 110, 107, 108, 107, 106, 109, -92, -91, -92, -103, -108, -113, -110, -108, -98, -87, -63, -34, -9, 14, -12, -36, -67, -92, -108, -113, -98, -54, -4, 46, 83, 102, 90, 75, 52, 20, -8, -26, -6, 22, 62, 83, 94, 108, 111, 112, 107, 109, 111, 113, -11, -98, -97, -103, -104, -104, -97, -88, -84, -72, -37, 12, 49, 49, 43, 3, -40, -78, -104, -114, -99, -51, -8, 63, 107, 109, 96, 62, 15, -12, -34, -55, -22, 8, 56, 87, 91, 90, 102, 106, 108, 111, 110, 115, 22, -108, -106, -96, -88, -69, -48, -40, -36, -49, -28, 29, 44, 16, 28, 45, -13, -73, -106, -113, -104, -37, -9, 72, 112, 109, 96, 52, 4, -26, -18, -55, -59, -32, 43, 50, 66, 65, 81, 89, 103, 109, 114, 114, 43, -110, -109, -95, -55, -34, -35, -74, -82, -43, -39, 39, 52, -18, -29, 25, -50, -105, -110, -114, -101, -45, -7, 74, 112, 115, 106, 92, 28, -22, -60, -79, -58, -41, 31, 69, 81, 66, 63, 77, 99, 113, 117, 118, -24, -118, -116, -101, -89, -73, -78, -95, -103, -86, -27, 35, 45, 4, -3, -42, -81, -113, -113, -111, -98, -39, 18, 86, 115, 116, 117, 106, 86, 28, -49, -50, -27, 30, 66, 89, 93, 83, 82, 91, 108, 113, 119, 120, 0, -114, -116, -113, -108, -108, -105, -108, -110, -102, -90, -55, -9, 6, 7, -79, -105, -115, -114, -113, -99, -52, 33, 98, 116, 116, 118, 115, 96, 22, -46, -57, -27, 34, 91, 106, 105, 105, 108, 112, 114, 117, 119, 118, 55, -117, -116, -115, -115, -114, -111, -116, -114, -108, -105, -90, -53, -40, -32, -89, -105, -112, -114, -110, -94, -57, 42, 100, 118, 116, 118, 116, 110, 75, 26, -7, 11, 58, 94, 102, 111, 112, 117, 115, 117, 119, 119, 117, 10, -112, -116, -113, -116, -115, -112, -114, -112, -109, -102, -93, -84, -73, -89, -111, -112, -116, -111, -110, -94, -57, 23, 101, 117, 116, 117, 116, 112, 106, 96, 82, 80, 88, 96, 108, 111, 114, 115, 116, 114, 118, 119, 121, 37, -115, -110, -109, -107, -108, -105, -105, -104, -103, -94, -93, -97, -101, -104, -111, -114, -113, -110, -106, -88, -49, 36, 103, 118, 116, 117, 116, 114, 109, 98, 96, 92, 90, 93, 100, 106, 110, 109, 111, 111, 115, 114, 118, 36, -110, -109, -104, -100, -94, -91, -94, -93, -92, -91, -96, -95, -99, -105, -113, -114, -113, -110, -105, -82, -34, 41, 105, 115, 116, 119, 118, 117, 113, 105, 96, 90, 88, 88, 89, 91, 93, 99, 102, 107, 112, 115, 120, 97, -112, -107, -103, -87, -83, -76, -76, -77, -81, -86, -88, -93, -99, -108, -110, -112, -111, -113, -102, -78, -33, 58, 106, 114, 119, 118, 118, 116, 113, 101, 89, 78, 79, 75, 70, 71, 70, 80, 97, 107, 111, 119, 117, -20, -115, -109, -99, -88, -76, -69, -56, -65, -71, -74, -80, -89, -98, -108, -111, -112, -112, -108, -95, -62, -19, 58, 102, 114, 121, 116, 119, 116, 112, 101, 74, 62, 43, 46, 47, 46, 48, 58, 90, 102, 112, 117, 119, 0, -114, -110, -107, -97, -83, -68, -53, -52, -65, -73, -84, -90, -96, -108, -111, -111, -113, -105, -94, -63, -30, 53, 99, 114, 118, 117, 117, 121, 116, 103, 82, 43, 18, 17, -1, -5, 29, 60, 88, 105, 116, 120, 118, 9, -114, -114, -107, -98, -90, -71, -65, -65, -65, -66, -72, -83, -97, -107, -109, -112, -107, -107, -92, -57, -23, 46, 97, 110, 117, 118, 118, 120, 115, 109, 94, 64, 36, 12, -5, 3, 38, 66, 95, 110, 117, 119, -111, -66, -114, -114, -113, -107, -91, -81, -53, -52, -51, -57, -66, -86, -96, -109, -112, -110, -108, -106, -87, -54, 1, 33, 82, 106, 113, 116, 120, 117, 118, 111, 104, 73, 48, 26, 7, 34, 52, 77, 99, 112, 116, 120, -14, -54, -113, -113, -115, -108, -97, -92, -78, -65, -65, -69, -72, -83, -101, -108, -114, -106, -105, -102, -81, -51, -3, 38, 76, 104, 113, 119, 119, 114, 115, 113, 108, 93, 66, 34, 21, 13, 55, 90, 107, 115, 117, 119, 40, 60, -114, -116, -113, -113, -105, -97, -87, -77, -63, -49, -65, -91, -107, -115, -114, -107, -103, -98, -81, -52, -13, 42, 74, 101, 108, 116, 115, 116, 115, 113, 109, 100, 83, 62, 55, 62, 82, 99, 112, 116, 116, 117, 40, -55, -99, -118, -118, -115, -111, -105, -93, -79, -42, -49, -71, -95, -109, -113, -111, -109, -104, -101, -89, -62, -17, 36, 71, 92, 101, 109, 112, 118, 117, 116, 110, 105, 94, 81, 72, 90, 95, 108, 116, 118, 119, 120, 37, 47, -48, -114, -117, -117, -111, -105, -97, -70, -51, -50, -81, -101, -112, -115, -113, -112, -108, -102, -96, -78, -38, 26, 73, 92, 99, 106, 113, 115, 117, 117, 115, 108, 96, 95, 90, 96, 107, 112, 116, 121, 116, 117, 40, -43, -71, -116, -117, -115, -114, -109, -98, -74, -53, -62, -90, -106, -116, -113, -114, -115, -108, -106, -103, -80, -29, 20, 65, 92, 102, 105, 112, 117, 118, 114, 113, 111, 103, 100, 97, 104, 110, 116, 119, 117, 118, 65, 36, 49, -68, -112, -115, -118, -117, -111, -101, -84, -72, -80, -99, -109, -113, -117, -117, -117, -114, -111, -103, -82, -23, 14, 65, 91, 106, 107, 114, 117, 116, 115, 118, 115, 108, 104, 104, 108, 116, 118, 120, 118, 117, 69, 40, -40, -32, -114, -118, -118, -116, -111, -102, -96, -92, -96, -106, -110, -114, -117, -116, -117, -114, -113, -100, -72, -10, 14, 51, 91, 108, 114, 116, 114, 114, 116, 115, 114, 111, 110, 106, 111, 116, 117, 120, 117, 119, 105, 38, -24, 51, -18, -116, -118, -117, -114, -105, -105, -103, -106, -109, -112, -115, -116, -114, -115, -113, -110, -95, -62, -23, 1, 39, 81, 100, 111, 112, 116, 114, 118, 114, 114, 111, 113, 112, 111, 116, 116, 118, 117, 117, 63, 38, 40, 36, 38, -117, -119, -118, -116, -110, -111, -109, -107, -108, -113, -114, -112, -110, -112, -109, -103, -89, -39, -18, -15, 34, 73, 100, 105, 113, 114, 115, 116, 116, 114, 111, 111, 113, 116, 113, 114, 118, 115, 119, 31, 37, 39, 37, 36, -116, -119, -118, -118, -114, -111, -110, -107, -108, -105, -110, -110, -112, -107, -102, -97, -76, -46, -26, 0, 19, 56, 91, 103, 112, 111, 114, 115, 115, 114, 111, 111, 111, 113, 117, 115, 115, 118, 74, 62, 39, 39, 38, 37, 52, -115, -114, -119, -118, -115, -110, -112, -106, -105, -108, -110, -107, -104, -96, -82, -64, -38, -15, 9, 33, 60, 85, 98, 104, 107, 112, 111, 110, 108, 107, 110, 112, 111, 114, 114, 114, 114, 39, 36, 36, 37, 40, 39, 29, -114, -119, -116, -116, -117, -112, -113, -107, -104, -103, -103, -106, -102, -92, -83, -63, -40, -7, 1, 7, 45, 75, 90, 100, 103, 109, 106, 107, 110, 106, 109, 110, 111, 113, 114, 113, 116, 39, 40, 37, 40, 36, 38, -3, -118, -118, -117, -119, -116, -114, -112, -111, -108, -109, -103, -102, -101, -92, -81, -58, -52, -24, -1, 11, 39, 71, 86, 98, 101, 108, 109, 106, 103, 107, 109, 112, 110, 117, 114, 117, 115, 38, 35, 37, 38, 37, 36, -69, 114, -117, -118, -118, -115, -116, -113, -115, -112, -110, -108, -107, -106, -98, -86, -67, -52, -21, -3, 17, 48, 78, 90, 99, 103, 107, 111, 110, 108, 107, 107, 111, 113, 117, 115, 115, -12, 40, 35, 40, 37, 36, 39, -50, 93, -115, -116, -114, -113, -115, -113, -115, -116, -116, -112, -112, -112, -106, -97, -75, -56, -23, -6, 22, 65, 82, 98, 107, 112, 113, 116, 113, 109, 110, 112, 111, 113, 113, 114, -96, 84, 38, 38, 37, 36, 40, 35, -79, -55, -115, -114, -116, -113, -115, -115, -113, -118, -115, -117, -115, -113, -106, -97, -85, -56, -35, 12, 43, 69, 94, 101, 110, 110, 112, 115, 113, 112, 114, 109, 110, 113, 109, 112, -56, 73, 39, 35, 39, 40, 40, 37, 35, 36, -75, -116, -113, -118, -116, -116, -117, -119, -116, -117, -114, -113, -108, -99, -77, -43, -8, 39, 65, 87, 99, 103, 110, 116, 114, 119, 119, 119, 116, 109, 112, 108, 113, -27, 100, 82, 39, 36, 35, 36, 36, 40, 39, 39, -78, 43, -115, -113, -118, -113, -116, -120, -117, -115, -114, -113, -108, -97, -73, -39, 0, 40, 59, 83, 102, 109, 112, 117, 117, 114, 115, 115, 113, 115, 110, 108, 109, 94, 85, -7, 38, 39, 36, 38, 40, 37, 36, 35, 22, -68, -114, -116, -118, -117, -119, -115, -118, -115, -117, -115, -110, -94, -78, -43, -7, 26, 55, 77, 94, 105, 114, 116, 115, 118, 118, 117, 114, 113, 109, 111, -31, 35, 40, 37, 36, 38, 39, 35, 40, 37, 37, 37, -79, -57, 13, -111, -112, -114, -117, -120, -117, -118, -118, -114, -107, -103, -83, -63, -40, 1, 36, 65, 85, 103, 110, 115, 115, 115, 116, 117, 115, 112, 109, 106, -51, 35, 40, 39, 37, 36, 38, 39, 38, 38, 39, 39, -86, -79, 66, -108, -113, -113, -114, -118, -119, -116, -118, -116, -110, -100, -91, -73, -50, -27, 3, 59, 87, 100, 110, 114, 116, 112, 117, 112, 115, 111, 111, 97, 93, 37, 35, 39, 39, 35, 35, 38, 40, 35, 37, 35, 36, 40, 38, 93, -110, -115, -114, -115, -115, -117, -117, -112, -112, -107, -97, -87, -64, -46, -2, 41, 83, 102, 109, 110, 112, 114, 116, 111, 112, 112, 36, 40, 40, 36, 38, 37, 39, 39, 40, 39, 37, 36, 35, 36, 36, 40, 38, -21, 0, -107, -112, -116, -118, -116, -115, -115, -110, -106, -96, -86, -67, -35, 9, 57, 73, 98, 105, 108, 112, 111, 110, 112, 110, 102, 38, 37, 37, 39, 37, 38, 40, 36, 38};
	static const int w1[] = {-80, 47, -99, -117, -119, -118, -119, -116, -119, -119, -118, -113, -114, -113, -116, -113, -112, -113, -112, -114, -112, -113, -114, -117, -117, -112, -116, -113, -112, -115, -118, -115, -116, -116, -121, -121, -120, -117, -117, -116, -116, -115, 108, -21, -2, -1, -114, -119, -119, -117, -118, -116, -118, -118, -118, -114, -113, -114, -112, -112, -111, -113, -114, -115, -115, -112, -112, -115, -112, -112, -115, -114, -114, -113, -116, -116, -117, -117, -118, -118, -121, -119, -118, -121, -115, -112, 107, -18, -82, 31, -112, -118, -117, -118, -119, -116, -117, -118, -115, -116, -113, -111, -113, -111, -111, -114, -113, -113, -110, -113, -111, -113, -109, -111, -109, -110, -109, -115, -113, -112, -113, -118, -120, -117, -119, -121, -120, -120, -116, -112, -86, -19, -99, -38, -114, -117, -117, -117, -119, -115, -114, -118, -116, -112, -114, -109, -109, -113, -108, -112, -111, -109, -107, -112, -107, -109, -111, -110, -110, -107, -108, -109, -109, -111, -116, -113, -114, -117, -116, -116, -118, -116, -115, -115, 103, -22, -8, 92, -115, -115, -116, -116, -115, -118, -118, -113, -115, -113, -111, -110, -108, -106, -110, -107, -108, -109, -110, -105, -105, -106, -108, -109, -109, -106, -107, -108, -107, -108, -112, -113, -114, -119, -118, -120, -118, -119, -118, -113, -110, -20, -109, -111, -113, -113, -116, -117, -115, -118, -116, -113, -111, -114, -112, -106, -110, -108, -105, -104, -105, -105, -107, -104, -106, -105, -103, -106, -103, -103, -105, -109, -109, -109, -109, -110, -115, -114, -119, -119, -115, -120, -115, -116, -110, -18, 8, -111, -113, -117, -117, -118, -114, -116, -113, -114, -113, -109, -110, -109, -108, -106, -103, -103, -99, -102, -98, -101, -101, -98, -100, -103, -99, -104, -104, -106, -108, -111, -114, -112, -115, -115, -116, -115, -115, -114, -114, -115, -109, -20, 27, -112, -115, -113, -114, -116, -112, -112, -110, -112, -111, -108, -107, -108, -105, -103, -95, -98, -91, -91, -88, -90, -88, -94, -98, -98, -100, -105, -105, -108, -110, -110, -110, -110, -113, -114, -115, -114, -115, -116, -117, -111, -114, -20, -92, -108, -113, -109, -109, -107, -99, -95, -91, -87, -93, -102, -100, -95, -97, -91, -87, -82, -76, -73, -80, -76, -81, -83, -86, -92, -91, -101, -97, -100, -102, -104, -102, -100, -95, -90, -95, -100, -104, -106, -113, -114, -110, -29, 85, -107, -109, -102, -99, -72, -43, -21, 10, 17, 0, -9, -34, -38, -54, -41, -40, -21, -15, -22, -35, -43, -45, -45, -48, -54, -35, -41, -68, -59, -57, -51, -36, -8, 8, 12, -5, -30, -61, -89, -99, -106, -106, 83, 36, -105, -100, -83, -51, 9, 53, 71, 85, 87, 86, 84, 75, 64, 53, 51, 43, 55, 66, 65, 44, 24, 2, 9, 28, 38, 35, 35, 39, 56, 59, 71, 82, 86, 86, 83, 75, 53, 38, -28, -67, -92, -100, -102, 1, -97, -86, -51, 14, 50, 76, 82, 80, 78, 79, 83, 87, 86, 79, 74, 69, 73, 92, 92, 79, 56, 49, 42, 60, 76, 67, 69, 69, 79, 81, 87, 85, 74, 70, 57, 53, 43, 48, 20, -17, -71, -88, -95, -77, -85, -62, -29, 21, 40, 51, 37, 25, 41, 44, 52, 61, 72, 80, 82, 78, 81, 94, 96, 95, 70, 57, 47, 66, 75, 77, 80, 82, 77, 76, 71, 58, 40, 21, 6, 14, 14, 23, 26, 7, -38, -79, -92, -29, -64, -47, -26, -7, -20, -10, -7, -9, 6, 21, 19, 34, 50, 63, 77, 75, 83, 95, 93, 76, 58, 44, 34, 35, 73, 75, 82, 74, 69, 62, 60, 44, 16, -3, -1, 7, -7, -11, -6, 1, -16, -62, -89, 2, -55, -26, -24, -33, -38, -32, 5, 28, 30, 14, 1, 14, 35, 28, 66, 80, 78, 90, 84, 57, 58, 29, -11, 8, 59, 77, 77, 71, 60, 45, 26, 5, 6, -12, 8, 0, -9, -23, -16, -3, -3, -54, -82, 4, -46, -13, -21, -37, -41, -14, 26, 47, 40, 16, 18, 13, 47, 39, 59, 76, 81, 91, 74, 44, 33, 10, -30, -5, 59, 78, 82, 77, 36, 55, 52, 41, 22, 31, 8, -2, -27, -38, -35, -29, -30, -48, -79, 19, -19, 6, 6, -4, -12, -13, 11, 46, 25, 12, -5, -29, 13, 17, 51, 78, 97, 91, 68, 29, 43, 9, -22, -3, 44, 65, 86, 60, 28, 34, 1, 17, 0, 2, -19, -3, -20, -31, -23, -30, -31, -48, -80, 25, -29, 1, 37, 32, 2, -19, -22, 4, 0, -15, -22, -8, -8, 36, 79, 96, 97, 83, 48, 10, 25, 14, -16, -22, 14, 48, 81, 80, 63, 53, 15, -2, -19, -21, -18, -23, -17, -10, -13, -6, -14, -52, -79, 36, -39, -13, 12, 24, 13, 16, 5, 36, 33, 28, 22, 27, 51, 76, 90, 94, 85, 67, 28, 3, 12, 17, -15, -20, -20, 13, 61, 82, 83, 63, 29, 38, 29, 21, 18, 14, 4, -18, -20, -11, -28, -54, -76, -12, -57, -35, -13, 9, 31, 43, 64, 72, 72, 65, 69, 76, 86, 87, 87, 75, 46, 30, 17, 9, -3, -4, -2, -27, -28, -5, 11, 53, 68, 81, 73, 71, 60, 56, 43, 34, 19, 9, -2, -26, -42, -64, -77, 3, -67, -48, -15, 8, 36, 48, 70, 77, 84, 80, 84, 90, 88, 78, 53, 36, 22, -3, -11, -18, -9, -18, -8, -23, -39, -34, -28, 3, 47, 80, 83, 79, 75, 67, 68, 61, 54, 33, -8, -43, -73, -79, -80, 6, -66, -43, -16, -9, 19, 26, 55, 69, 68, 76, 80, 83, 72, 30, 19, 7, -2, -18, -18, -13, -19, -16, -27, -25, -44, -41, -41, -36, -4, 50, 74, 78, 71, 67, 70, 55, 25, 1, -22, -58, -76, -80, -74, 49, -61, -55, -24, -13, 7, 9, 26, 46, 62, 66, 63, 47, 29, -4, 4, 2, -10, -23, -12, -12, -18, -23, -26, -31, -40, -45, -36, -39, -38, 3, 47, 55, 60, 59, 43, 33, -6, -19, -46, -56, -74, -71, -73, 8, -57, -44, -31, -15, -4, 0, 9, 8, 22, 29, 28, 10, -9, -4, 5, 10, -7, -28, -28, -16, -7, 14, -10, -29, -35, -37, -36, -37, -33, -34, -13, 14, 28, 34, 11, -12, -42, -37, -49, -60, -70, -68, -62, 3, -48, -39, -18, -19, -8, -20, -16, -13, 0, -18, -13, -5, 4, -4, 25, 30, -9, -19, -21, -6, 8, 21, -15, -22, -41, -38, -37, -38, -40, -25, -30, -15, -11, 2, -14, -10, -38, -40, -60, -53, -62, -56, -65, -11, -44, -34, -5, -3, -13, -5, -19, -15, -20, -18, -6, 13, 3, 29, 51, 21, 2, -5, -11, -10, 0, 14, 0, -18, -31, -43, -22, -26, -27, -23, -6, -21, -36, -36, -33, -44, -35, -41, -40, -41, -50, -48, 31, -9, -21, -12, -3, 5, -5, -6, -9, -4, -15, 0, 13, 23, 22, 39, 41, 22, 28, 10, 19, 19, 32, 26, 12, 3, -27, -44, -28, -16, -20, -1, -7, 3, 0, -30, -35, -25, -47, -41, -46, -35, -32, -23, -18, 5, -14, 0, 15, 19, 8, 19, 1, 3, 1, 18, 33, 37, 46, 51, 53, 57, 50, 24, 19, 38, 42, 47, 25, 17, 3, -14, -23, -9, -9, 0, 16, 22, 11, 13, 1, -34, -27, -34, -26, -16, -18, -21, -19, 25, -4, 16, 18, 15, 18, 35, 45, 38, 47, 55, 46, 51, 50, 54, 63, 63, 59, 45, 29, 46, 52, 44, 30, 11, 10, 5, 17, 2, 10, 31, 22, 32, 36, 31, 36, 15, 1, 0, -3, -5, -9, -4, -20, 18, 2, 21, 33, 39, 44, 54, 62, 68, 61, 59, 64, 55, 60, 81, 87, 88, 75, 61, 63, 69, 60, 57, 53, 36, 23, 34, 41, 38, 45, 52, 55, 50, 53, 44, 36, 35, 25, 19, 3, 12, 0, 5, -21, 0, 15, 22, 28, 45, 66, 71, 74, 74, 76, 65, 67, 66, 72, 89, 100, 98, 85, 85, 83, 76, 68, 66, 60, 71, 65, 69, 70, 72, 68, 57, 71, 76, 63, 59, 64, 50, 28, 28, 25, 10, 0, 4, -18, -12, -30, 16, 32, 48, 64, 76, 73, 82, 78, 68, 73, 76, 84, 94, 104, 103, 104, 102, 103, 100, 83, 85, 88, 94, 91, 88, 82, 78, 69, 72, 77, 83, 72, 68, 70, 61, 48, 32, 27, 15, 12, 0, -17, 1, 35, 16, 37, 52, 51, 75, 82, 85, 78, 78, 84, 88, 97, 103, 102, 105, 110, 109, 109, 108, 101, 105, 101, 101, 105, 100, 96, 84, 80, 82, 83, 83, 82, 75, 73, 64, 50, 44, 35, 26, 14, 11, -21, -14, -20, 8, 29, 59, 70, 79, 82, 86, 81, 88, 92, 97, 105, 105, 102, 105, 108, 113, 114, 112, 113, 113, 109, 110, 107, 104, 98, 97, 91, 84, 85, 87, 88, 77, 78, 73, 45, 43, 32, 25, 25, 0, -21, 8, -37, -20, 48, 56, 76, 81, 88, 91, 92, 93, 95, 101, 100, 102, 105, 105, 107, 107, 113, 109, 111, 113, 111, 109, 110, 102, 97, 94, 95, 89, 87, 89, 91, 91, 76, 79, 71, 50, 43, 39, 31, -11, -19, -22, -18, -21, 51, 66, 78, 88, 89, 96, 98, 95, 95, 97, 96, 93, 93, 95, 98, 102, 101, 105, 103, 104, 104, 97, 98, 94, 89, 83, 80, 83, 85, 81, 92, 91, 95, 95, 85, 72, 59, 46, 49, -1, -22, -21, -21, -20, 54, 72, 82, 96, 97, 100, 100, 98, 97, 92, 88, 86, 82, 79, 81, 89, 85, 88, 94, 89, 88, 84, 76, 81, 78, 71, 66, 69, 76, 85, 91, 99, 99, 100, 100, 80, 65, 63, -38, 4, -20, -19, -21, -20, -8, 70, 85, 93, 101, 104, 104, 103, 93, 90, 81, 77, 82, 80, 85, 80, 84, 79, 80, 81, 72, 73, 72, 76, 69, 65, 63, 67, 80, 91, 103, 106, 107, 107, 96, 83, 74, 66, -19, -22, -19, -19, -20, -18, -11, 77, 89, 97, 106, 110, 109, 107, 103, 87, 83, 82, 85, 80, 84, 80, 79, 82, 78, 73, 78, 76, 65, 67, 65, 68, 69, 68, 81, 99, 105, 108, 113, 106, 99, 81, 70, 41, -22, -22, -21, -22, -21, -22, 36, 72, 90, 96, 102, 112, 110, 106, 108, 101, 91, 82, 85, 84, 91, 85, 85, 80, 80, 76, 84, 84, 79, 79, 75, 69, 74, 84, 92, 98, 108, 113, 110, 105, 99, 80, 79, 44, -21, -20, -22, -21, -18, -18, 2, -64, 85, 97, 105, 112, 111, 112, 108, 105, 100, 90, 90, 83, 84, 87, 82, 89, 90, 86, 85, 83, 77, 76, 76, 80, 83, 93, 96, 105, 106, 111, 113, 102, 93, 86, 76, -1, -22, -22, -22, -22, -18, -21, 2, -41, 79, 96, 102, 108, 115, 110, 110, 109, 103, 98, 91, 90, 86, 80, 81, 82, 84, 83, 82, 79, 77, 81, 76, 85, 90, 94, 98, 106, 111, 109, 111, 102, 87, 80, -2, 43, -20, -19, -22, -21, -22, -21, 6, 5, 66, 88, 98, 107, 108, 112, 110, 108, 108, 108, 101, 96, 94, 88, 82, 77, 80, 75, 74, 70, 70, 73, 84, 86, 93, 96, 98, 106, 107, 111, 103, 98, 87, 72, -8, -2, -20, -18, -18, -18, -17, -17, -19, -17, 21, 79, 93, 105, 109, 106, 108, 109, 104, 106, 105, 98, 96, 92, 86, 85, 86, 87, 84, 82, 85, 87, 93, 93, 95, 98, 103, 104, 106, 107, 101, 93, 81, 4, 68, 57, -22, -22, -21, -22, -19, -18, -22, -22, 37, -22, 83, 99, 105, 107, 107, 105, 109, 107, 104, 107, 104, 101, 93, 94, 93, 86, 89, 89, 93, 93, 95, 95, 94, 103, 103, 104, 105, 102, 99, 89, 83, 22, 12, 3, -19, -22, -20, -18, -19, -18, -19, -20, 4, 51, 75, 93, 98, 106, 108, 106, 107, 108, 108, 110, 108, 102, 104, 104, 100, 96, 100, 102, 101, 102, 99, 98, 101, 102, 102, 102, 99, 96, 95, 84, -12, -21, -18, -20, -18, -22, -20, -22, -20, -22, -18, -20, 47, 33, -2, 74, 91, 94, 102, 101, 105, 109, 111, 110, 108, 108, 110, 107, 109, 104, 104, 104, 104, 108, 105, 107, 107, 101, 102, 99, 98, 95, 85, 77, -15, -19, -19, -21, -20, -19, -19, -18, -19, -22, -22, -22, 53, 51, -1, 37, 79, 86, 94, 96, 100, 103, 106, 108, 111, 112, 109, 111, 106, 112, 108, 107, 110, 109, 107, 103, 102, 102, 98, 91, 91, 84, 70, 55, 31, -21, -18, -22, -18, -21, -18, -19, -19, -22, -20, -21, -18, -21, -18, -24, 62, 70, 81, 87, 94, 101, 102, 110, 106, 109, 108, 107, 109, 112, 107, 108, 106, 107, 103, 103, 100, 99, 90, 89, 77, 73, -21, -22, -18, -19, -18, -21, -21, -17, -22, -22, -20, -22, -18, -22, -22, -21, -18, 34, -4, 53, 57, 81, 88, 98, 101, 103, 104, 108, 109, 110, 106, 107, 106, 105, 103, 104, 100, 99, 96, 88, 84, 69, 71, 52, -17, -19, -19, -21, -19, -22, -17, -21, -17};
	static const int w2[] = {-14, 4, 5, 70, 60, 42, 14, -9, -41, -51, -64, -78, -89, -87, -92, -91, -91, -95, -93, -95, -93, -94, -100, -98, -100, -100, -95, -98, -94, -93, -98, -90, -88, -84, -73, -54, -44, -27, -9, 2, 34, 54, -22, 9, -29, 34, 81, 69, 61, 31, 13, -17, -41, -61, -79, -83, -92, -93, -92, -94, -92, -97, -95, -93, -94, -99, -97, -100, -97, -97, -99, -96, -93, -96, -95, -91, -89, -83, -74, -59, -48, -31, -7, 12, 36, 53, -40, 5, -30, 50, 80, 68, 49, 32, 8, -25, -47, -74, -82, -87, -94, -92, -94, -93, -96, -96, -98, -99, -95, -97, -97, -99, -97, -95, -99, -100, -93, -94, -94, -93, -92, -82, -81, -65, -54, -43, -15, 8, 31, 61, 15, 9, 27, 13, 80, 68, 44, 19, 0, -31, -50, -72, -85, -90, -92, -93, -96, -94, -94, -98, -98, -96, -96, -98, -94, -96, -96, -97, -94, -92, -92, -93, -91, -95, -93, -91, -84, -71, -52, -43, -22, 3, 35, 69, -36, 10, 5, -63, 79, 71, 53, 20, -9, -35, -58, -73, -85, -93, -96, -97, -96, -95, -91, -92, -98, -94, -95, -94, -92, -93, -93, -95, -93, -94, -96, -93, -97, -94, -90, -94, -88, -83, -77, -58, -33, 0, 36, 61, 72, 8, 72, 89, 83, 78, 51, 9, -23, -50, -77, -84, -90, -95, -99, -97, -97, -97, -96, -93, -95, -94, -95, -92, -94, -93, -92, -90, -89, -94, -92, -93, -95, -96, -99, -103, -97, -95, -84, -71, -52, -11, 33, 62, 70, 7, -33, 90, 85, 74, 50, -16, -58, -73, -88, -97, -101, -100, -102, -105, -104, -99, -96, -96, -95, -90, -88, -86, -86, -88, -91, -91, -94, -96, -102, -100, -101, -101, -104, -105, -103, -99, -93, -80, -59, -19, 38, 58, 68, 9, -10, 94, 93, 68, 35, -19, -55, -73, -86, -95, -95, -103, -103, -103, -104, -104, -103, -98, -97, -91, -92, -85, -88, -85, -90, -97, -100, -101, -102, -106, -108, -102, -104, -101, -102, -98, -94, -79, -54, -35, 28, 56, 75, 10, 69, 95, 85, 67, 41, -5, -29, -41, -66, -77, -83, -85, -89, -98, -98, -105, -104, -106, -103, -96, -93, -88, -87, -91, -96, -102, -102, -105, -107, -100, -99, -96, -95, -90, -84, -80, -71, -64, -31, -15, 38, 55, 77, -2, -57, 99, 82, 76, 47, 23, -4, -24, -20, -20, -27, -42, -56, -74, -82, -92, -102, -102, -104, -102, -96, -96, -92, -88, -95, -101, -105, -97, -93, -81, -76, -69, -71, -43, -31, -41, -42, -26, -19, 5, 45, 66, 76, -62, 0, 96, 88, 81, 60, 28, 2, -6, -15, 6, 26, 26, 18, -10, -38, -58, -75, -88, -92, -96, -98, -91, -95, -93, -89, -90, -89, -75, -66, -51, -43, 2, 6, 6, -13, -23, -29, -17, -20, 15, 50, 69, 79, 81, 40, 95, 85, 75, 57, 25, -4, -9, -6, 7, 23, 18, 29, 16, 8, -26, -40, -63, -75, -83, -87, -84, -84, -76, -68, -55, -43, -39, -49, -43, -17, -10, -6, -12, -15, -30, -29, -16, 4, 16, 43, 71, 79, 82, 85, 91, 88, 68, 51, 26, -3, -23, -20, -15, -6, 5, 8, 1, 6, 3, -6, -17, -23, -52, -72, -70, -66, -55, -24, 2, -10, -50, -43, -22, -30, -27, -4, -4, -16, -27, -22, 7, 21, 24, 43, 64, 85, 86, -13, 91, 79, 71, 49, 31, -2, -20, -23, -32, -35, -29, -28, -25, 1, 0, 3, 11, 18, -32, -40, -25, -22, -16, 35, 43, 0, -36, -31, -30, -26, -27, -21, -23, -22, -30, -17, -1, 27, 42, 53, 61, 76, 86, 1, 92, 74, 59, 60, 41, 32, 8, 6, -21, -22, -11, -30, -31, -35, -24, -11, 27, 28, 5, -9, -2, 5, 16, 80, 62, 43, 4, -23, -38, -24, -13, -13, -1, -22, -20, -6, 18, 49, 53, 61, 65, 70, 84, 9, 92, 79, 66, 65, 56, 47, 54, 55, 38, 8, -40, -56, -24, 13, 14, 2, 30, 53, 48, 20, -8, 18, 63, 93, 78, 37, 11, 11, -7, -18, -32, -39, -27, -24, 29, 38, 36, 60, 59, 54, 56, 80, 88, 15, 93, 85, 73, 62, 66, 63, 60, 65, 53, -7, -53, -26, 13, 13, -8, 37, 41, 63, 76, 49, -29, 9, 67, 99, 84, 38, 35, 21, 17, -1, -20, -30, -39, -15, 2, 24, 47, 63, 65, 45, 62, 78, 89, 7, 100, 89, 88, 82, 77, 59, 51, 26, 5, -22, -36, -35, -39, -14, 7, 56, 62, 86, 95, 53, -31, 1, 77, 101, 88, 60, 9, -11, -19, -31, -36, -26, -35, -27, -8, 16, 39, 48, 63, 57, 72, 87, 96, 39, 104, 97, 96, 91, 91, 78, 56, 19, -9, -40, -38, -37, -15, 0, 38, 64, 81, 99, 100, 61, -29, -1, 79, 102, 99, 74, 41, 11, -4, -23, -22, -44, -55, -50, -34, -16, 38, 68, 78, 75, 87, 91, 101, 12, 105, 100, 97, 94, 90, 83, 71, 54, 30, 8, -19, -39, -35, -24, 19, 73, 98, 108, 102, 72, -9, 9, 76, 105, 101, 92, 67, 29, -21, -48, -49, -44, -15, -11, -4, 18, 48, 63, 69, 78, 89, 96, 104, 23, 106, 100, 98, 91, 84, 70, 50, 25, -10, -28, -43, -58, -41, -11, 56, 96, 104, 110, 106, 78, 26, 34, 82, 104, 103, 102, 89, 65, -6, -47, -75, -69, -59, -43, -25, -4, 27, 55, 71, 86, 96, 97, 100, -65, 110, 104, 97, 88, 86, 73, 51, 31, 2, -24, -42, -42, -24, 41, 90, 103, 111, 109, 105, 84, 39, 41, 80, 105, 104, 102, 99, 91, 54, -14, -48, -63, -52, -36, -6, 14, 44, 57, 71, 93, 102, 104, 104, -74, 107, 102, 95, 85, 75, 69, 65, 42, 16, 3, -7, 17, 39, 81, 102, 107, 108, 106, 99, 70, 43, 50, 86, 98, 102, 104, 102, 92, 84, 56, -9, -32, -28, -18, 27, 47, 56, 64, 82, 90, 98, 107, 107, 41, 111, 104, 96, 87, 75, 60, 47, 44, 42, 28, 31, 66, 76, 94, 104, 109, 108, 104, 89, 59, 34, 28, 72, 93, 102, 105, 100, 98, 87, 82, 44, 13, -2, 19, 30, 51, 58, 69, 79, 93, 101, 105, 104, 14, 106, 105, 97, 86, 75, 60, 55, 50, 54, 56, 67, 77, 92, 103, 110, 110, 107, 104, 84, 43, -3, 0, 54, 86, 98, 105, 103, 99, 94, 95, 83, 54, 29, 34, 37, 50, 62, 66, 79, 91, 103, 103, 104, 13, 105, 107, 101, 90, 80, 68, 63, 63, 64, 69, 84, 94, 104, 109, 107, 103, 105, 100, 83, 39, -3, 6, 30, 79, 92, 97, 99, 101, 102, 105, 96, 83, 64, 44, 52, 56, 59, 68, 75, 91, 101, 107, -57, 54, 106, 106, 98, 88, 80, 70, 63, 67, 71, 84, 95, 106, 113, 112, 105, 96, 101, 100, 89, 58, 18, 9, 40, 81, 96, 96, 90, 90, 106, 109, 105, 97, 86, 65, 49, 44, 45, 61, 80, 84, 98, 104, 10, 39, 106, 107, 101, 90, 86, 79, 80, 81, 83, 96, 105, 111, 111, 109, 100, 99, 103, 100, 90, 68, 49, 42, 62, 79, 88, 93, 91, 86, 94, 108, 107, 107, 98, 90, 77, 65, 55, 64, 72, 90, 101, 98, 9, -48, 107, 107, 102, 100, 89, 87, 85, 90, 95, 107, 111, 111, 113, 107, 99, 100, 99, 96, 82, 66, 57, 51, 59, 76, 89, 89, 90, 83, 88, 101, 110, 111, 106, 95, 89, 77, 73, 67, 83, 99, 97, 102, 11, 31, 97, 108, 103, 99, 103, 100, 99, 100, 110, 113, 113, 109, 102, 85, 74, 79, 84, 74, 68, 52, 51, 49, 56, 61, 73, 77, 77, 71, 62, 79, 104, 110, 112, 106, 100, 87, 89, 88, 94, 98, 100, 101, 9, -36, -18, 110, 106, 110, 105, 108, 105, 110, 113, 114, 113, 104, 83, 62, 31, 10, 11, 23, 13, 16, 26, 8, 14, 19, 9, 9, 23, 20, 32, 63, 86, 102, 109, 108, 107, 101, 100, 100, 101, 103, 102, 101, 6, 46, 72, 110, 111, 112, 113, 108, 113, 110, 112, 113, 106, 95, 87, 63, 34, -12, -45, -39, -46, -44, -35, -42, -41, -42, -54, -49, -33, 1, 43, 71, 80, 94, 105, 108, 110, 109, 106, 105, 101, 103, 103, 30, 6, -27, 21, 108, 108, 109, 112, 113, 111, 111, 111, 108, 103, 100, 98, 91, 66, 11, -45, -69, -73, -78, -77, -72, -82, -81, -79, -59, -34, 18, 65, 84, 88, 90, 101, 107, 107, 108, 107, 104, 100, 98, 97, 42, 5, 50, 40, 104, 108, 106, 108, 114, 113, 114, 109, 108, 108, 102, 100, 100, 88, 48, -21, -62, -81, -86, -91, -94, -94, -88, -82, -61, -11, 51, 79, 92, 95, 97, 96, 102, 107, 104, 100, 100, 96, 93, 95, 70, 6, 11, -3, -6, 101, 106, 107, 110, 107, 107, 109, 108, 108, 108, 107, 103, 94, 67, 18, -35, -65, -79, -87, -86, -84, -83, -71, -37, 19, 62, 85, 92, 92, 97, 96, 92, 98, 97, 86, 86, 80, 83, 86, 57, 7, 8, 9, 7, 101, 97, 96, 101, 105, 102, 105, 108, 107, 109, 108, 104, 102, 92, 59, 26, -2, -44, -57, -56, -53, -37, -8, 22, 53, 74, 92, 93, 95, 96, 89, 85, 68, 65, 54, 50, 64, 77, 78, 21, 11, 6, 10, 6, 89, 88, 81, 86, 84, 91, 101, 101, 105, 103, 109, 102, 97, 82, 59, 39, 13, -28, -34, -24, -19, 0, 21, 34, 50, 74, 78, 84, 84, 82, 71, 52, 21, -1, 1, 6, 30, 53, 88, 50, 9, 9, 6, 7, 0, 77, 75, 59, 55, 61, 70, 74, 80, 89, 94, 88, 77, 55, 31, -1, -19, -38, -36, -27, -43, -45, -31, 0, 7, 34, 56, 52, 39, 31, 1, -30, -54, -69, -58, -26, -1, 52, 8, 7, 9, 10, 7, 6, -16, 65, 62, 35, 5, -1, -2, 3, 2, 7, 46, 43, 26, 3, -29, -68, -78, -88, -86, -89, -94, -87, -83, -70, -56, -42, -33, -27, -50, -64, -71, -84, -90, -85, -76, -49, -4, 58, 8, 10, 7, 8, 8, 8, -14, 55, 49, 29, -20, -44, -59, -73, -86, -73, -43, -30, -41, -48, -68, -92, -93, -104, -104, -100, -104, -103, -96, -95, -85, -78, -66, -83, -90, -99, -104, -102, -104, -92, -76, -48, 2, 21, 8, 6, 10, 10, 6, 7, 36, -27, 43, 13, -18, -65, -85, -101, -99, -97, -83, -66, -56, -65, -83, -88, -97, -99, -99, -99, -101, -97, -96, -94, -85, -80, -88, -98, -105, -107, -107, -106, -110, -101, -75, -47, 11, 31, 6, 8, 6, 6, 8, 8, 28, 6, 41, 22, -25, -69, -96, -103, -108, -103, -95, -87, -72, -76, -84, -86, -87, -90, -87, -88, -93, -88, -90, -94, -88, -83, -93, -100, -105, -111, -111, -112, -107, -94, -78, -36, 5, 26, 6, 6, 7, 5, 9, 10, 18, 36, 32, 15, -15, -69, -100, -107, -105, -103, -96, -87, -78, -83, -87, -84, -82, -72, -74, -65, -70, -78, -90, -94, -96, -97, -101, -100, -109, -107, -111, -109, -108, -95, -65, -9, -39, 9, 5, 9, 9, 5, 7, 5, 9, 6, 39, 18, -11, -66, -93, -101, -101, -99, -98, -98, -100, -97, -102, -101, -92, -86, -84, -85, -87, -92, -99, -98, -105, -102, -103, -103, -106, -108, -109, -106, -103, -88, -50, -74, -9, -28, 10, 9, 8, 6, 10, 8, 7, 7, 37, -18, -7, -60, -89, -96, -98, -98, -99, -101, -104, -104, -106, -107, -107, -105, -103, -103, -102, -103, -106, -110, -110, -112, -106, -106, -108, -107, -105, -107, -94, -74, -43, 70, 40, -11, 10, 6, 6, 8, 8, 10, 9, 5, -4, -14, -14, -47, -77, -88, -91, -92, -99, -105, -104, -109, -111, -111, -114, -108, -108, -109, -107, -113, -115, -115, -115, -114, -113, -107, -105, -106, -101, -97, -82, -42, -30, 10, 9, 6, 9, 8, 10, 5, 6, 8, 9, 7, 6, 0, 21, -22, -59, -69, -86, -92, -101, -108, -111, -111, -111, -113, -114, -117, -112, -116, -114, -116, -114, -115, -114, -111, -113, -109, -104, -102, -97, -82, -51, -37, -3, 8, 10, 6, 8, 7, 9, 8, 7, 9, 5, 10, 12, 35, -27, -24, -23, -53, -68, -84, -98, -107, -109, -109, -113, -111, -117, -117, -115, -112, -113, -115, -117, -116, -116, -112, -111, -109, -100, -92, -80, -47, -28, -13, 46, 8, 5, 8, 8, 6, 9, 6, 6, 6, 9, 7, 8, 9, 10, -21, 5, -6, -39, -67, -90, -99, -106, -107, -109, -109, -111, -111, -114, -112, -111, -112, -112, -110, -108, -109, -103, -102, -92, -76, -50, -7, 10, 10, 9, 7, 10, 9, 9, 10, 8, 6, 9, 7, 7, 8, 8, 7, 10, 16, 21, 20, 4, -26, -63, -83, -95, -98, -105, -106, -108, -111, -110, -108, -108, -110, -108, -107, -102, -102, -97, -85, -74, -46, -5, 11, 7, 7, 7, 6, 8, 9, 8, 6, 6};
	static const int w3[] = {11, 0, 7, 89, 71, 47, 19, -10, -40, -62, -79, -86, -93, -94, -96, -99, -100, -100, -103, -101, -102, -100, -100, -102, -95, -94, -98, -91, -92, -90, -83, -78, -65, -49, -26, -7, 7, 31, 56, 78, 88, 95, -66, 29, -32, 5, 98, 94, 65, 41, 9, -17, -47, -63, -74, -85, -96, -94, -97, -95, -98, -102, -100, -104, -99, -99, -101, -100, -99, -97, -96, -96, -90, -90, -87, -83, -70, -64, -40, -3, 13, 31, 59, 74, 85, 95, -76, 30, -39, 43, 95, 91, 68, 44, 1, -30, -48, -71, -84, -87, -96, -95, -99, -101, -101, -101, -99, -99, -102, -101, -97, -101, -97, -99, -97, -96, -92, -90, -93, -89, -83, -66, -48, -15, 11, 20, 51, 75, 89, 95, 23, 30, 3, -7, 98, 91, 73, 44, 4, -38, -55, -76, -88, -92, -98, -98, -102, -99, -101, -102, -100, -102, -102, -101, -99, -96, -96, -95, -97, -96, -96, -91, -91, -84, -79, -69, -52, -30, 8, 36, 65, 79, 93, 97, -67, 29, -6, -82, 103, 93, 78, 44, 4, -36, -58, -80, -86, -95, -97, -94, -95, -97, -99, -100, -98, -100, -97, -96, -96, -92, -98, -91, -94, -94, -91, -92, -89, -90, -85, -75, -59, -21, 6, 38, 67, 79, 96, 99, 98, 33, 92, 104, 103, 101, 81, 45, 10, -19, -52, -67, -81, -88, -91, -90, -90, -92, -96, -95, -95, -97, -98, -94, -93, -93, -95, -92, -93, -89, -83, -83, -80, -83, -78, -61, -40, -10, 34, 58, 78, 89, 97, 101, 96, 30, -51, 104, 106, 106, 85, 70, 50, 32, -3, -21, -49, -50, -62, -72, -80, -87, -92, -96, -93, -94, -93, -91, -90, -91, -93, -90, -90, -82, -76, -70, -55, -47, -36, -27, -9, 33, 51, 75, 87, 96, 102, 100, 100, 32, -16, 106, 108, 104, 100, 87, 87, 71, 45, 28, 17, 6, 2, -12, -28, -51, -82, -85, -95, -89, -91, -88, -91, -89, -91, -94, -88, -76, -56, -42, -22, -2, 11, 28, 38, 63, 69, 82, 94, 101, 102, 102, 101, 30, 79, 109, 110, 109, 100, 97, 97, 81, 71, 63, 50, 42, 40, 23, -7, -33, -49, -78, -90, -96, -94, -91, -91, -93, -96, -92, -82, -62, -21, 4, 15, 34, 42, 37, 52, 53, 64, 79, 91, 96, 103, 106, 99, 21, -75, 111, 108, 107, 103, 91, 67, 53, 12, 8, 10, 5, 18, 21, -10, -9, -32, -67, -89, -91, -97, -90, -94, -94, -98, -88, -76, -34, -19, -10, 2, 5, 1, -20, -12, 1, 21, 40, 77, 87, 95, 97, 105, -70, -12, 110, 111, 103, 98, 72, 30, -29, -56, -70, -82, -70, -63, -46, -33, -26, -40, -60, -79, -95, -98, -97, -96, -100, -98, -84, -52, -48, -46, -49, -62, -68, -73, -79, -77, -71, -70, -30, 18, 61, 81, 92, 100, 96, 8, 111, 107, 104, 95, 69, 11, -57, -83, -88, -89, -92, -89, -85, -81, -66, -59, -47, -62, -86, -95, -96, -92, -97, -97, -73, -61, -54, -63, -79, -84, -86, -82, -90, -87, -84, -72, -40, -9, 36, 63, 85, 92, 96, 96, 110, 111, 107, 97, 77, 22, -38, -58, -66, -72, -62, -55, -74, -82, -80, -72, -55, -54, -66, -84, -86, -81, -84, -73, -42, -48, -67, -80, -88, -83, -77, -79, -75, -74, -67, -57, -24, 3, 32, 53, 70, 93, 98, 18, 113, 107, 106, 105, 93, 70, 42, 0, -21, -39, -33, -38, -43, -57, -68, -67, -39, -12, -26, -55, -62, -63, -56, -28, -34, -43, -75, -72, -63, -53, -63, -60, -35, -40, -33, -13, 24, 41, 52, 55, 68, 84, 94, -7, 108, 110, 106, 100, 90, 74, 19, -3, -38, -61, -39, -53, -75, -41, -61, -62, -51, 26, 10, -5, -25, -32, -19, 36, 14, -38, -69, -62, -62, -72, -68, -50, -44, -32, -30, -23, 6, 42, 54, 66, 64, 82, 93, -32, 105, 108, 102, 97, 78, 41, -20, -7, 22, -29, -47, -83, -105, -81, -63, -87, -76, 24, 45, 24, -18, -9, 17, 64, 39, -44, -87, -82, -66, -98, -95, -47, -25, -31, -18, -56, -24, 51, 59, 57, 63, 84, 92, 5, 99, 101, 97, 92, 90, 78, 21, -55, 1, -18, -44, -93, -93, -76, -72, -72, -42, 48, 66, 53, -1, 7, 43, 78, 57, -10, -73, -50, -81, -95, -98, -54, 8, 15, -38, -52, 1, 68, 70, 66, 68, 79, 96, -26, 94, 93, 99, 101, 103, 105, 98, 52, -5, -33, -53, -58, -60, -66, -79, -65, 16, 73, 78, 72, 4, 16, 61, 86, 78, 60, -28, -77, -74, -69, -56, -55, -38, -23, -15, 42, 79, 90, 90, 87, 89, 93, 96, -38, 100, 100, 99, 103, 105, 103, 90, 64, 25, -23, -44, -56, -61, -75, -71, -18, 68, 92, 92, 73, 8, 16, 71, 87, 90, 82, 48, -48, -75, -72, -67, -44, -27, -18, 21, 52, 80, 90, 98, 97, 105, 105, 102, 8, 98, 96, 101, 99, 96, 85, 48, -21, -63, -80, -86, -84, -79, -55, -3, 58, 92, 97, 100, 80, 42, 41, 75, 91, 98, 97, 88, 55, -36, -76, -82, -80, -80, -71, -41, -7, 56, 94, 104, 102, 100, 100, 104, 1, 101, 92, 90, 82, 79, 65, 36, -23, -52, -66, -66, -52, -44, 8, 48, 77, 97, 101, 105, 94, 41, 49, 80, 94, 100, 100, 95, 86, 61, 3, -52, -63, -65, -54, -43, -9, 49, 77, 92, 98, 98, 104, 104, -81, 101, 86, 78, 64, 64, 54, 18, 0, -6, -28, -24, -15, 12, 22, 67, 92, 101, 104, 105, 96, 62, 62, 87, 96, 102, 105, 102, 96, 76, 50, 15, -6, -26, -29, -11, 18, 51, 62, 81, 89, 95, 102, 103, -69, 101, 82, 61, 55, 46, 36, 34, 21, 12, -6, -4, 6, 17, 19, 75, 91, 104, 104, 105, 96, 63, 61, 87, 94, 103, 105, 104, 101, 82, 56, 30, 13, 10, 0, 9, 5, 37, 56, 74, 76, 92, 103, 107, 29, 101, 85, 59, 45, 26, 27, 13, 22, 21, 8, -8, 4, 2, 32, 65, 98, 105, 108, 105, 88, 60, 50, 83, 94, 99, 106, 106, 98, 75, 46, 20, 21, 0, 7, 3, 8, 21, 48, 67, 79, 90, 98, 108, 41, 104, 85, 65, 52, 30, -6, 3, 7, 20, 14, -2, -11, -10, 7, 35, 91, 104, 104, 102, 82, 33, 28, 69, 88, 98, 100, 101, 75, 38, -11, 4, 14, -3, -12, -18, -13, 0, 34, 60, 80, 94, 106, 110, 16, 109, 97, 75, 52, 29, 24, 20, 17, 13, 18, -6, -42, -63, -63, 5, 87, 108, 106, 97, 69, 7, 6, 52, 78, 92, 99, 99, 72, -36, -67, -69, -31, 6, 9, 0, 11, 17, 46, 69, 84, 99, 105, -76, 45, 108, 104, 87, 59, 26, 13, 2, 0, -13, -31, -65, -89, -96, -87, 16, 96, 107, 106, 91, 58, 2, -6, 37, 72, 85, 93, 94, 75, -60, -96, -96, -81, -59, -21, -8, 9, 34, 57, 79, 94, 101, 107, 20, 39, 109, 106, 97, 76, 50, 11, -4, -38, -48, -77, -99, -108, -107, -96, 31, 97, 95, 100, 92, 50, 5, -5, 31, 65, 78, 77, 79, 68, -38, -101, -107, -104, -93, -78, -52, -30, 9, 60, 83, 96, 99, 107, 30, -82, 110, 109, 103, 85, 42, -14, -44, -72, -90, -101, -112, -110, -107, -92, 29, 75, 78, 86, 72, 37, 0, -12, -2, 24, 31, 30, 49, 38, -43, -99, -113, -111, -106, -96, -84, -66, -26, 37, 68, 89, 102, 102, 32, -13, 100, 109, 99, 85, 22, -46, -81, -99, -109, -113, -114, -113, -105, -78, -2, 36, 39, 31, 27, -12, -30, -51, -38, -33, -9, -10, -5, -4, -50, -101, -113, -113, -110, -108, -99, -86, -67, -15, 40, 81, 95, 98, 32, -32, -51, 106, 97, 66, -4, -73, -99, -107, -111, -118, -116, -116, -102, -86, -41, 0, -4, -22, -46, -62, -68, -74, -80, -69, -48, -40, -28, -19, -58, -100, -108, -114, -115, -113, -111, -106, -89, -54, -5, 57, 75, 91, 32, 62, 58, 105, 93, 50, -31, -91, -109, -111, -113, -119, -118, -110, -102, -88, -64, -27, -14, -39, -77, -92, -93, -98, -91, -89, -73, -43, -12, -32, -73, -100, -111, -117, -115, -117, -117, -112, -99, -80, -29, 29, 67, 40, 33, -21, 25, 102, 91, 45, -52, -99, -110, -116, -115, -118, -113, -113, -101, -91, -71, -37, -18, -31, -82, -102, -102, -105, -100, -88, -66, -26, -17, -33, -71, -98, -110, -115, -115, -115, -115, -113, -108, -89, -52, 7, 60, 53, 33, 37, 52, 103, 89, 45, -49, -102, -113, -118, -116, -116, -112, -109, -98, -83, -63, -37, -32, -33, -73, -95, -99, -101, -98, -81, -50, -13, -6, -19, -66, -94, -108, -112, -115, -116, -118, -113, -110, -90, -54, 5, 55, 51, 29, -36, -9, -36, 90, 46, -43, -97, -109, -113, -117, -118, -113, -102, -90, -75, -64, -57, -55, -65, -80, -95, -90, -90, -94, -83, -58, -18, -12, -25, -58, -82, -106, -111, -116, -113, -112, -109, -104, -80, -33, 26, 58, 42, 29, 31, 32, 31, 96, 65, -5, -81, -108, -111, -112, -112, -112, -104, -99, -80, -84, -80, -77, -83, -93, -95, -94, -93, -93, -89, -78, -68, -57, -56, -59, -86, -100, -110, -112, -114, -111, -103, -85, -52, 2, 38, 57, 26, 31, 30, 31, 32, 103, 82, 42, -45, -91, -104, -110, -110, -110, -104, -96, -85, -74, -77, -78, -75, -79, -83, -90, -92, -92, -84, -79, -70, -54, -55, -64, -77, -94, -105, -106, -107, -102, -85, -52, -14, 40, 54, 87, 28, 30, 32, 30, 33, 1, 94, 73, 5, -56, -90, -99, -101, -97, -87, -71, -56, -25, -26, -23, -32, -40, -45, -58, -65, -52, -36, -36, -24, -18, -22, -48, -43, -62, -75, -83, -88, -72, -49, -4, 35, 54, 70, 30, 32, 29, 28, 28, 30, -32, 98, 82, 43, 4, -59, -72, -59, -47, -19, -11, 13, 35, 39, 47, 38, 32, 32, 13, 3, 28, 24, 29, 35, 30, 27, 11, 3, -3, -2, -37, -48, -33, -3, 16, 62, 67, 77, 31, 32, 32, 31, 30, 28, -60, 99, 95, 78, 47, 0, -16, 3, 24, 56, 50, 64, 67, 68, 74, 66, 68, 62, 45, 44, 56, 65, 63, 64, 62, 58, 45, 51, 53, 44, 16, -6, -7, 17, 46, 62, 77, 66, 33, 30, 33, 30, 29, 29, 45, -96, 98, 90, 65, 38, 23, 44, 59, 73, 76, 76, 83, 80, 68, 61, 52, 57, 39, 29, 50, 50, 54, 67, 67, 58, 57, 53, 64, 51, 45, 22, 3, 35, 68, 77, 72, 16, 31, 28, 30, 32, 32, 28, 17, -54, 100, 92, 79, 66, 51, 64, 76, 83, 84, 85, 75, 79, 51, 31, 6, -11, -11, -14, -6, 1, 10, 30, 48, 64, 61, 59, 67, 65, 53, 30, 31, 46, 65, 72, -49, 37, 31, 30, 31, 33, 32, 30, 61, 21, 92, 93, 88, 76, 67, 76, 84, 80, 86, 84, 86, 72, 47, 16, -10, -27, -24, -15, -15, 0, 14, 36, 55, 62, 67, 69, 68, 69, 60, 49, 49, 53, 70, 72, -43, 42, 29, 30, 29, 32, 31, 28, 30, 33, 30, 96, 89, 83, 84, 85, 87, 85, 91, 89, 86, 75, 60, 30, 3, -14, -20, -5, -6, -3, 5, 25, 44, 62, 71, 74, 76, 74, 75, 64, 64, 65, 67, -65, 55, 34, 32, 28, 33, 28, 32, 28, 32, 31, 58, 4, 91, 89, 96, 93, 94, 90, 87, 87, 75, 74, 48, 25, 8, -6, -7, -9, -4, 1, 5, 29, 47, 63, 75, 78, 82, 87, 84, 78, 69, 69, 69, 72, 54, 6, 31, 29, 29, 31, 29, 32, 32, 32, -24, 41, 97, 98, 104, 104, 101, 100, 97, 86, 72, 64, 47, 22, 23, 11, 9, 6, 16, 24, 20, 32, 44, 58, 76, 81, 88, 92, 81, 78, 75, 71, -59, 33, 32, 28, 31, 29, 33, 32, 30, 29, 32, 28, 51, 33, -5, 101, 107, 107, 103, 102, 97, 92, 79, 56, 35, 25, 10, 10, 0, -1, -4, 7, 15, 31, 46, 67, 82, 94, 94, 92, 87, 83, 69, 66, -26, 28, 31, 28, 31, 32, 32, 28, 31, 30, 32, 32, 58, -11, -82, 96, 105, 104, 107, 106, 101, 99, 90, 70, 51, 24, 13, -2, 14, 5, 1, 28, 26, 57, 66, 78, 89, 95, 99, 92, 86, 72, 71, 60, 79, 30, 31, 29, 29, 29, 33, 29, 32, 32, 30, 31, 29, 33, 29, -87, 107, 106, 107, 107, 105, 99, 87, 77, 68, 54, 24, 3, 1, 0, 6, 14, 38, 56, 70, 86, 90, 99, 92, 88, 74, 69, 29, 29, 33, 30, 29, 29, 29, 31, 30, 32, 30, 31, 29, 29, 31, 31, 30, -10, -49, 106, 109, 106, 105, 99, 94, 81, 65, 52, 28, 11, 2, 2, -3, 24, 49, 70, 87, 82, 89, 96, 92, 77, 59, 49, 32, 30, 30, 33, 33, 29, 32, 29, 31};
	static const int w4[] = {53, -29, 74, 97, 96, 84, 79, 67, 47, 25, 8, -1, -12, -20, -15, -15, -8, -15, -2, -7, -3, -2, 11, 12, 9, 14, 18, 20, 27, 39, 46, 50, 61, 69, 71, 71, 73, 73, 76, 85, 84, 83, -60, 14, 5, -3, 87, 95, 89, 86, 73, 61, 40, 22, 1, -1, -2, -14, -14, -14, -20, -15, -16, -15, -19, -16, 7, 2, 9, 4, 14, 22, 30, 40, 35, 54, 62, 61, 72, 78, 77, 81, 81, 82, 81, 84, -49, 14, 41, -8, 89, 94, 91, 86, 70, 53, 34, 13, 0, -3, -13, -10, -16, -12, -10, -10, -9, -24, -16, -9, -10, -14, 0, 0, 8, 11, 27, 31, 37, 43, 56, 60, 71, 73, 73, 80, 78, 84, 85, 82, 51, 15, 37, 1, 87, 96, 92, 81, 61, 42, 33, 6, 1, -2, -11, -8, -8, -9, -7, -13, -7, -23, -10, -6, 0, 6, 0, 0, 7, 7, 15, 21, 25, 38, 47, 60, 61, 72, 64, 68, 75, 81, 83, 82, -58, 15, 32, -57, 91, 92, 83, 70, 56, 37, 15, -7, -12, 0, -10, -8, -8, -5, -1, 0, -5, -22, -11, -3, 1, 8, 13, -1, 2, 2, 6, 0, 6, 11, 26, 48, 46, 56, 64, 68, 67, 77, 84, 81, 80, 14, 66, 82, 84, 88, 79, 70, 57, 35, 6, 5, 0, 2, 0, -14, -12, -12, -9, -12, -8, -14, 0, 0, 2, 2, 6, 3, -5, 0, 7, 4, 15, 16, 19, 37, 49, 54, 61, 66, 60, 65, 78, 81, 77, 18, 9, 78, 81, 82, 69, 53, 43, 42, 34, 23, 23, 19, 10, -7, -10, -1, 0, -1, -4, -25, -15, -20, -23, -19, -7, -8, -3, 9, 16, 28, 24, 25, 32, 41, 48, 53, 58, 54, 56, 62, 67, 76, 74, 13, -21, 72, 71, 67, 62, 30, 31, 48, 31, 35, 23, 28, 23, 15, -7, 0, 2, -5, -25, -24, -38, -36, -42, -39, -26, -19, 13, 28, 23, 22, 26, 32, 33, 33, 36, 44, 48, 52, 45, 47, 57, 58, 58, 18, 33, 62, 54, 39, 12, -4, -9, -25, -27, -23, -17, -4, -12, -15, -15, -12, -23, -25, -49, -38, -57, -58, -57, -50, -45, -24, 8, 3, 0, 9, 11, 17, 16, 0, -7, -22, -14, 8, 17, 25, 42, 47, 47, 2, -35, 46, 44, 30, 17, -24, -65, -76, -86, -81, -76, -56, -45, -31, -39, -49, -51, -54, -44, -55, -61, -69, -60, -55, -37, -27, -11, -11, 0, -3, -5, -15, -31, -57, -67, -74, -75, -59, -27, 2, 25, 34, 22, -22, -26, 24, 21, 29, -6, -50, -80, -95, -103, -103, -98, -93, -77, -51, -40, -53, -50, -40, -46, -36, -51, -56, -54, -39, -13, -18, -6, -5, -2, 9, -18, -62, -86, -95, -92, -94, -93, -78, -57, -14, 8, 15, 0, 24, -15, 16, 20, 22, -9, -30, -75, -96, -103, -104, -100, -100, -97, -85, -63, -44, -35, -35, -24, -31, -31, -33, -19, -11, -4, 0, 7, 22, 15, -27, -70, -90, -94, -98, -99, -96, -93, -79, -46, -6, 27, 2, -2, 5, -24, 8, 20, 26, 3, -12, -56, -70, -89, -91, -85, -87, -83, -82, -80, -55, -24, -27, -22, -39, -38, -49, -24, -25, -13, 14, 44, 50, -14, -57, -68, -81, -90, -92, -88, -84, -74, -51, -20, 8, 22, 3, -25, -9, 8, -2, 10, 39, 31, 15, 27, 2, -50, -75, -80, -74, -57, -48, -36, -34, -31, -16, -43, -63, -81, -66, -56, -63, -59, 0, 39, 1, -24, -32, -50, -75, -85, -81, -83, -60, -45, -26, -3, 25, 34, 8, -16, -20, -17, -27, -3, 28, 42, 42, 41, 29, -7, -3, -18, -15, -4, -26, -21, -16, -23, -37, -61, -90, -95, -72, -71, -79, -82, -21, -4, -18, -22, -29, -29, -30, -46, -31, -29, -30, -28, -9, 17, 29, 6, -9, -28, -28, -19, -24, -38, -17, 38, 60, 45, -11, -55, -9, -5, -13, -9, -35, -60, -37, -46, -75, -89, -103, -98, -78, -71, -83, -90, -55, -50, -51, -54, -15, -34, -69, -12, -10, -4, -37, -63, -27, 8, 11, -9, -26, -50, -44, -6, -36, -65, -76, -48, -16, -1, -45, -73, -76, -51, -50, -63, -69, -82, -74, -84, -97, -102, -108, -100, -66, -70, -87, -90, -84, -79, -86, -75, -79, -78, -85, -87, -56, -70, -87, -78, -51, -44, -49, -57, -68, -73, -57, -16, -62, -84, -94, -95, -84, -66, -75, -81, -95, -93, -85, -83, -96, -102, -101, -100, -105, -113, -109, -96, -71, -62, -87, -93, -91, -93, -97, -105, -109, -103, -98, -91, -92, -87, -92, -82, -75, -82, -91, -88, -88, -85, -57, -3, -45, -85, -97, -97, -99, -86, -69, -60, -64, -73, -86, -92, -104, -108, -111, -112, -110, -115, -110, -91, -70, -68, -87, -95, -95, -100, -110, -114, -110, -109, -103, -87, -75, -67, -68, -62, -81, -88, -94, -94, -89, -78, -42, -29, -34, -78, -92, -101, -101, -97, -94, -87, -80, -90, -100, -108, -111, -118, -116, -114, -113, -110, -109, -94, -72, -68, -87, -93, -93, -102, -108, -114, -115, -112, -110, -98, -89, -83, -79, -86, -94, -95, -96, -92, -80, -64, -28, -6, -20, -72, -93, -99, -103, -100, -101, -103, -99, -105, -105, -108, -114, -112, -111, -110, -111, -111, -105, -89, -70, -73, -87, -95, -95, -100, -105, -111, -115, -115, -111, -111, -105, -104, -105, -105, -102, -97, -98, -89, -76, -59, -15, -53, 2, -63, -88, -88, -93, -88, -91, -94, -97, -98, -102, -103, -108, -107, -107, -105, -107, -109, -104, -90, -78, -76, -94, -92, -88, -94, -99, -106, -104, -108, -104, -102, -98, -96, -92, -86, -89, -91, -91, -89, -74, -47, -9, -12, -1, -53, -77, -80, -78, -78, -76, -82, -88, -90, -94, -94, -97, -101, -101, -105, -106, -103, -103, -85, -67, -76, -92, -95, -85, -88, -88, -98, -95, -97, -92, -97, -90, -87, -73, -70, -68, -76, -82, -79, -68, -42, -5, 0, 24, -29, -65, -67, -64, -56, -57, -65, -67, -75, -78, -86, -84, -92, -93, -95, -95, -101, -96, -87, -69, -73, -91, -93, -83, -77, -77, -77, -85, -78, -78, -76, -69, -70, -55, -49, -58, -70, -79, -73, -60, -32, 5, 7, 41, -14, -59, -67, -72, -62, -55, -57, -64, -62, -69, -81, -73, -77, -81, -95, -100, -98, -94, -73, -60, -64, -84, -89, -81, -79, -72, -61, -50, -49, -60, -50, -53, -53, -51, -44, -52, -65, -74, -66, -50, -24, 8, 0, 54, 3, -42, -72, -69, -68, -67, -66, -64, -64, -68, -66, -46, -50, -69, -89, -98, -92, -82, -39, -3, -14, -49, -64, -74, -81, -85, -67, -18, -3, -17, -46, -60, -55, -60, -63, -72, -69, -63, -60, -40, -3, -18, -7, 70, 34, -19, -69, -66, -71, -71, -73, -66, -63, -48, -22, -18, -18, -67, -86, -87, -62, -23, 16, 41, 32, 23, -4, -31, -65, -79, -69, 4, 31, 22, 5, -17, -40, -61, -68, -69, -79, -64, -52, -9, 24, -26, 25, 79, 61, 16, -34, -57, -61, -61, -53, -34, -16, 4, 11, 9, -3, -33, -55, -41, -1, 52, 70, 72, 67, 62, 59, 30, -8, -38, -22, 8, 25, 42, 33, 29, 7, -25, -50, -55, -51, -39, -10, 28, 41, 17, -66, 87, 81, 50, 20, -20, -32, -27, -5, 16, 35, 36, 6, -9, -26, -21, 4, 7, 40, 71, 84, 89, 88, 84, 78, 67, 46, 29, 13, 12, 15, 25, 45, 56, 48, 14, -11, -20, -12, 1, 33, 63, 61, 16, 17, 54, 93, 81, 66, 40, 32, 39, 53, 53, 47, 30, -1, -33, -71, -64, -32, 12, 11, 32, 59, 80, 86, 81, 62, 54, 40, 20, -23, -42, -39, -7, 37, 62, 77, 77, 69, 58, 57, 69, 81, 77, 68, 15, -32, -24, 99, 98, 93, 86, 76, 79, 81, 70, 69, 18, -28, -62, -81, -87, -85, -80, -68, -53, -27, 15, 21, 6, -20, -30, -43, -57, -71, -74, -60, -24, 23, 50, 81, 87, 91, 85, 96, 96, 93, 90, 77, 16, 25, 14, 106, 106, 107, 105, 101, 97, 92, 84, 59, 14, -27, -70, -76, -88, -95, -100, -102, -95, -83, -78, -67, -67, -69, -82, -87, -83, -80, -71, -54, -31, 20, 49, 82, 92, 99, 100, 102, 101, 101, 91, 23, 14, -20, 46, 107, 111, 111, 112, 107, 104, 96, 87, 60, 20, -27, -50, -70, -85, -95, -99, -100, -100, -91, -87, -88, -81, -83, -90, -86, -88, -76, -56, -32, -10, 24, 57, 79, 96, 104, 104, 108, 107, 102, 95, 14, 13, 31, 67, 105, 108, 113, 112, 109, 106, 95, 89, 73, 48, 15, -10, -27, -65, -76, -88, -90, -84, -76, -82, -76, -74, -68, -82, -75, -59, -44, -23, 19, 36, 43, 68, 90, 100, 104, 108, 111, 105, 101, 97, 42, 14, 7, -31, 1, 111, 109, 112, 109, 107, 102, 97, 87, 74, 59, 46, 15, -7, -16, -33, -43, -32, -16, -34, -32, -16, -11, -19, -31, -12, 0, 27, 59, 80, 82, 86, 92, 102, 103, 105, 107, 105, 101, 96, 13, 18, 14, 18, 13, 107, 111, 109, 111, 102, 100, 99, 93, 89, 89, 78, 57, 55, 40, 33, 35, 37, 49, 34, 23, 47, 60, 57, 40, 36, 34, 62, 85, 92, 98, 95, 97, 100, 96, 106, 106, 108, 101, 90, 0, 17, 14, 13, 17, 110, 111, 109, 111, 103, 98, 100, 96, 93, 97, 91, 85, 72, 70, 63, 70, 73, 74, 63, 68, 74, 80, 75, 80, 74, 71, 81, 87, 93, 94, 97, 94, 91, 95, 101, 109, 107, 101, 35, 13, 15, 17, 17, 18, -39, 111, 111, 108, 104, 94, 90, 87, 81, 81, 83, 86, 62, 50, 48, 14, 13, 14, 8, 11, 18, 22, 24, 40, 48, 63, 72, 77, 79, 87, 83, 86, 85, 94, 102, 108, 105, 101, 14, 13, 17, 15, 13, 15, -27, 108, 113, 107, 101, 90, 79, 73, 44, 29, 31, 34, 25, -4, -38, -54, -67, -71, -51, -56, -49, -58, -59, -39, -27, 5, 22, 32, 26, 40, 62, 74, 83, 98, 105, 108, 108, 92, 17, 16, 16, 18, 14, 17, 5, 106, 112, 110, 109, 93, 86, 54, -15, -44, -58, -52, -53, -58, -74, -83, -96, -89, -87, -89, -87, -90, -88, -71, -58, -54, -47, -40, -36, -7, 39, 74, 86, 101, 111, 109, 108, 95, 17, 17, 15, 14, 16, 16, 35, -106, 110, 111, 111, 102, 82, 54, -26, -68, -80, -81, -84, -77, -84, -83, -89, -88, -86, -84, -84, -81, -83, -77, -67, -60, -57, -55, -47, -6, 47, 82, 99, 109, 111, 111, 108, 1, 14, 15, 15, 14, 16, 17, 34, -86, 111, 114, 113, 107, 100, 65, 15, -46, -68, -72, -68, -54, -47, -51, -57, -35, -39, -42, -44, -39, -38, -30, -34, -43, -43, -50, -26, 25, 72, 88, 108, 113, 114, 112, -69, 51, 17, 16, 17, 16, 15, 16, 28, 8, 103, 111, 113, 109, 101, 84, 41, 4, -23, -33, -38, -29, -19, 3, 2, 10, 10, 9, 15, 15, 9, -8, -9, -23, -18, -5, 31, 60, 88, 103, 111, 111, 112, 109, -55, 15, 14, 17, 13, 18, 14, 17, 16, 17, 49, 110, 112, 111, 108, 97, 78, 63, 32, 15, 3, -20, -19, -10, 9, 7, 15, 19, 12, 15, 8, -10, 3, -6, 4, 42, 64, 85, 100, 105, 111, 112, 108, -9, 74, 41, 13, 17, 13, 17, 15, 17, 17, 18, 71, -28, 109, 111, 106, 102, 93, 79, 66, 40, 10, -5, -4, -17, -9, -24, -30, -40, -37, -43, -30, -28, -15, 5, 32, 58, 81, 91, 102, 109, 110, 111, 107, 83, 45, -24, 13, 15, 14, 14, 18, 16, 18, 15, 1, 73, 110, 108, 105, 100, 96, 86, 74, 55, 20, -5, -21, -46, -53, -52, -64, -66, -61, -59, -39, -26, -19, 4, 37, 63, 84, 92, 107, 104, 106, 108, -65, 14, 18, 17, 17, 14, 18, 18, 14, 16, 14, 18, 54, 64, -41, 108, 108, 105, 99, 94, 86, 73, 46, 14, -12, -37, -50, -59, -63, -63, -63, -54, -46, -25, 1, 18, 43, 75, 91, 98, 105, 104, 105, 101, -48, 15, 17, 17, 14, 16, 17, 15, 15, 14, 16, 16, 69, 22, -65, 91, 105, 106, 101, 97, 90, 88, 68, 36, 8, -7, -11, -17, -16, -28, -28, -18, 3, 13, 28, 46, 66, 81, 99, 107, 104, 103, 99, 70, 100, 13, 18, 14, 13, 13, 14, 16, 16, 14, 16, 18, 17, 13, 15, -88, 104, 104, 101, 99, 102, 93, 86, 64, 45, 35, 35, 32, 35, 26, 33, 35, 42, 58, 69, 84, 93, 96, 103, 105, 102, 100, 16, 17, 18, 17, 13, 14, 16, 17, 16, 16, 18, 15, 13, 14, 18, 14, 17, 16, -31, 103, 105, 106, 104, 99, 101, 91, 76, 79, 81, 85, 76, 84, 82, 87, 90, 92, 99, 101, 99, 105, 103, 104, 102, 95, 14, 15, 18, 16, 14, 17, 17, 17, 17};
	
	// Load bias
	static const signed char b[] = {-2, -2, -2, -2, -2, -2, -2, -2, -2, -2, -2, -2, -2, -2, -3, -2, -2, -2, -3, -3, -3, -3, -2, -2, -2, -2, -2, -2, -2, -2, -2, -2, -2, -2, -2, -2, -2, -2, -2, -2, -2, -3, -3, -15, -3, -3, -2, -2, -2, -2, -2, -2, -2, -2, -2, -2, -2, -3, -3, -2, -3, -2, -2, -3, -2, -2, -2, -2, -2, -2, -2, -2, -2, -2, -2, -2, -2, -2, -2, -2, -2, -2, -2, -2, -2, -3, -3, -15, -2, -2, -2, -2, -2, -2, -2, -2, -2, -2, -2, -2, -2, -3, -2, -3, -3, -3, -2, -2, -3, -3, -3, -3, -3, -3, -3, -3, -3, -3, -2, -2, -2, -2, -2, -2, -2, -2, -2, -2, -2, -3, -2, -15, -2, -2, -2, -2, -2, -2, -2, -2, -2, -2, -2, -2, -2, -3, -3, -3, -3, -3, -3, -3, -3, -3, -3, -3, -3, -3, -3, -3, -3, -3, -3, -2, -2, -2, -2, -2, -2, -2, -2, -2, -2, -3, -3, -15, -2, -3, -2, -2, -2, -2, -2, -2, -2, -2, -2, -2, -2, -3, -3, -3, -3, -3, -3, -3, -3, -3, -3, -3, -3, -3, -3, -3, -3, -3, -3, -3, -3, -2, -2, -2, -2, -2, -2, -2, -2, -2, -3, -15, -2, -2, -2, -2, -2, -2, -2, -2, -2, -2, -2, -2, -3, -3, -3, -3, -3, -4, -4, -3, -3, -3, -3, -4, -4, -4, -3, -4, -3, -3, -3, -3, -3, -3, -2, -2, -2, -2, -2, -2, -2, -2, -3, -15, -2, -2, -2, -2, -2, -2, -2, -2, -2, -2, -2, -2, -2, -2, -3, -3, -3, -3, -4, -4, -4, -4, -4, -4, -4, -4, -4, -3, -3, -3, -3, -2, -2, -2, -2, -2, -2, -2, -2, -2, -2, -2, -3, -15, -2, -2, -2, -2, -2, -2, -2, -2, -2, -2, -2, -2, -2, -2, -2, -2, -3, -3, -3, -4, -4, -5, -5, -4, -4, -3, -3, -3, -2, -2, -2, -2, -2, -2, -2, -2, -2, -2, -2, -2, -3, -3, -3, -15, -2, -2, -2, -2, -2, -2, -3, -3, -3, -3, -3, -3, -2, -2, -2, -2, -2, -2, -3, -3, -4, -4, -4, -4, -3, -3, -3, -2, -2, -2, -2, -2, -2, -3, -3, -3, -3, -3, -3, -3, -3, -3, -2, -3, -2, -2, -2, -2, -3, -3, -3, -3, -3, -3, -3, -4, -4, -4, -3, -3, -2, -2, -2, -2, -3, -3, -3, -3, -3, -2, -2, -2, -3, -3, -4, -4, -4, -4, -3, -3, -3, -3, -3, -3, -3, -3, -3, -4, -2, -2, -3, -3, -3, -3, -3, -3, -3, -3, -3, -4, -4, -5, -5, -5, -4, -3, -2, -2, -2, -3, -3, -3, -2, -2, -3, -4, -4, -5, -5, -4, -3, -3, -2, -2, -3, -3, -3, -3, -3, -3, -3, -3, -2, -2, -3, -3, -2, -2, -2, -2, -2, -2, -2, -2, -3, -3, -4, -5, -5, -4, -2, -2, -2, -3, -3, -3, -2, -3, -4, -5, -5, -5, -4, -3, -3, -3, -2, -2, -2, -2, -3, -3, -3, -4, -3, -3, -2, -3, -3, -3, -2, -2, -2, -2, -2, -2, -2, -3, -3, -3, -4, -4, -4, -4, -3, -2, -2, -3, -3, -3, -2, -3, -4, -5, -4, -4, -4, -3, -3, -3, -2, -2, -3, -2, -3, -3, -4, -4, -3, -3, -2, -2, -2, -3, -3, -3, -3, -3, -3, -3, -3, -4, -5, -5, -6, -5, -4, -4, -3, -2, -2, -4, -4, -3, -2, -3, -4, -5, -4, -5, -5, -4, -4, -4, -4, -3, -3, -4, -4, -3, -3, -4, -3, -3, -2, -2, -2, -3, -3, -4, -5, -5, -5, -6, -5, -6, -6, -5, -8, -7, -5, -4, -3, -2, -3, -5, -5, -3, -2, -3, -4, -5, -5, -6, -5, -5, -5, -6, -6, -6, -6, -6, -5, -4, -4, -3, -3, -3, -2, -2, -2, -3, -4, -5, -6, -4, -3, -5, -8, -7, -4, -3, -4, -6, -4, -3, -2, -2, -3, -5, -5, -3, -2, -3, -3, -4, -5, -5, -3, -2, -6, -9, -8, -6, -4, -6, -7, -6, -4, -3, -3, -2, -2, -2, -2, -2, -4, -4, -5, -3, -3, -3, -6, -5, -3, -2, -3, -4, -3, -2, -2, -2, -3, -6, -6, -3, -2, -3, -3, -3, -3, -4, -3, -3, -4, -7, -5, -3, -3, -4, -5, -5, -4, -3, -2, -2, -2, -2, -2, -2, -2, -2, -2, -2, -2, -2, -3, -3, -3, -3, -3, -3, -2, -2, -2, -2, -3, -5, -7, -3, -2, -2, -2, -2, -2, -3, -3, -2, -3, -3, -3, -3, -3, -3, -3, -3, -2, -2, -2, -2, -3, -2, -2, -2, -2, -2, -2, -2, -2, -2, -2, -2, -3, -3, -2, -2, -2, -2, -2, -2, -3, -5, -6, -3, -2, -2, -2, -2, -2, -3, -3, -3, -3, -3, -2, -2, -2, -2, -2, -2, -2, -2, -2, -2, -2, -2, -2, -2, -2, -2, -2, -2, -2, -2, -2, -2, -2, -2, -2, -2, -2, -2, -2, -2, -3, -6, -6, -3, -2, -2, -2, -2, -2, -2, -2, -2, -2, -2, -2, -2, -2, -2, -2, -2, -2, -2, -2, -2, -2, -2, -2, -2, -2, -3, -3, -3, -3, -2, -2, -3, -2, -2, -3, -3, -2, -2, -2, -2, -3, -5, -6, -3, -2, -2, -2, -2, -2, -3, -3, -3, -3, -3, -2, -2, -3, -3, -3, -3, -2, -2, -2, -2, -2, -2, -3, -3, -3, -4, -4, -4, -4, -4, -4, -3, -3, -3, -3, -3, -2, -2, -2, -2, -3, -6, -5, -3, -2, -2, -2, -2, -2, -3, -3, -3, -3, -4, -4, -4, -4, -4, -4, -3, -3, -3, -2, -2, -2, -2, -2, -4, -4, -5, -5, -6, -5, -5, -5, -4, -4, -4, -4, -3, -2, -2, -2, -2, -3, -6, -5, -3, -2, -2, -2, -2, -2, -3, -4, -4, -4, -5, -5, -5, -5, -5, -5, -4, -4, -3, -2, -2, -2, -2, -2, -3, -4, -5, -6, -6, -6, -6, -5, -5, -5, -4, -3, -2, -2, -2, -2, -3, -4, -6, -6, -4, -2, -2, -2, -2, -2, -3, -4, -5, -6, -6, -6, -6, -6, -5, -5, -4, -3, -3, -2, -2, -2, -2, -2, -3, -4, -5, -5, -6, -6, -6, -5, -5, -4, -3, -3, -2, -2, -2, -2, -3, -4, -5, -6, -4, -3, -2, -2, -2, -2, -2, -3, -5, -6, -6, -7, -6, -7, -6, -5, -4, -3, -3, -2, -2, -2, -2, -2, -3, -3, -4, -5, -6, -6, -6, -5, -4, -3, -3, -2, -2, -2, -2, -2, -2, -3, -5, -5, -3, -2, -2, -2, -2, -2, -2, -3, -3, -4, -5, -6, -6, -6, -6, -5, -4, -3, -2, -2, -2, -2, -2, -2, -3, -3, -4, -5, -6, -6, -5, -4, -4, -3, -2, -2, -2, -2, -2, -2, -2, -3, -3, -3, -3, -2, -2, -2, -2, -2, -2, -2, -3, -4, -5, -5, -6, -6, -6, -5, -4, -3, -2, -2, -3, -2, -2, -2, -2, -3, -4, -5, -5, -5, -5, -4, -3, -2, -2, -2, -2, -2, -2, -2, -2, -2, -3, -2, -2, -2, -2, -2, -2, -2, -2, -2, -2, -3, -4, -5, -6, -6, -6, -5, -3, -3, -2, -2, -15, -2, -2, -2, -2, -3, -4, -4, -5, -4, -4, -3, -2, -2, -2, -2, -2, -2, -2, -2, -2, -2, -2, -2, -2, -2, -2, -2, -2, -2, -2, -2, -2, -2, -3, -4, -4, -5, -5, -4, -3, -2, -2, -2, -15, -3, -2, -2, -2, -2, -3, -3, -3, -3, -3, -2, -2, -2, -2, -2, -2, -2, -2, -2, -2, -2, -2, -2, -2, -2, -3, -3, -3, -2, -2, -2, -2, -2, -2, -3, -3, -4, -4, -3, -3, -2, -2, -2, -15, -3, -2, -2, -2, -2, -3, -3, -2, -3, -2, -2, -2, -2, -2, -2, -2, -2, -3, -3, -3, -2, -3, -2, -3, -3, -3, -3, -3, -3, -2, -2, -2, -2, -2, -2, -2, -3, -3, -2, -2, -2, -2, -2, -15, -2, -2, -2, -2, -2, -2, -2, -2, -2, -2, -2, -2, -2, -2, -2, -2, -2, -3, -3, -2, -3, -3, -3, -3, -3, -3, -3, -3, -2, -2, -2, -2, -2, -2, -2, -2, -2, -2, -2, -2, -2, -2, -2, -15, -2, -3, -2, -2, -2, -2, -2, -2, -2, -2, -2, -2, -2, -2, -2, -2, -2, -2, -2, -3, -2, -2, -2, -3, -3, -3, -3, -2, -2, -2, -2, -2, -2, -2, -2, -2, -2, -2, -2, -2, -2, -2, -2, -15, -3, -3, -2, -2, -2, -2, -2, -2, -2, -2, -2, -2, -2, -2, -2, -2, -2, -2, -2, -2, -2, -2, -2, -2, -2, -2, -3, -2, -2, -2, -2, -2, -2, -2, -2, -2, -2, -2, -2, -2, -2, -2, -2, -15, -3, -3, -2, -2, -2, -2, -2, -2, -2, -2, -2, -2, -2, -2, -2, -2, -2, -2, -2, -2, -2, -2, -2, -2, -2, -2, -2, -2, -2, -2, -2, -2, -2, -2, -2, -2, -2, -2, -2, -2, -2, -2, -2, -15, -15, -15, -15, -2, -2, -2, -2, -2, -2, -2, -2, -2, -2, -2, -2, -2, -2, -2, -2, -2, -2, -2, -2, -2, -2, -2, -2, -2, -2, -2, -2, -2, -2, -2, -2, -2, -2, -2, -2, -2, -2, -2, -3, -15, -15, -15, -15, -2, -2, -2, -2, -2, -2, -2, -2, -2, -2, -2, -2, -2, -2, -2, -2, -2, -2, -2, -2, -2, -2, -2, -2, -2, -2, -2, -2, -2, -2, -2, -2, -2, -2, -3, -2, -2, -2, -2, -2, -15, -15, -15, -15, -2, -2, -2, -2, -2, -2, -2, -2, -3, -3, -2, -2, -2, -2, -2, -2, -2, -2, -2, -2, -2, -2, -2, -2, -2, -2, -3, -3, -3, -3, -3, -2, -2, -2, -2, -2, -2, -2, -15, -15, -15, -15, -15, -15, -2, -2, -2, -2, -2, -2, -2, -2, -2, -2, -3, -2, -2, -2, -2, -2, -2, -2, -2, -2, -2, -2, -2, -2, -3, -2, -3, -3, -3, -3, -3, -2, -2, -2, -2, -2, -2, -2, -15, -15, -15, -15, -15, -15, -2, -2, -2, -2, -2, -2, -2, -2, -2, -2, -2, -3, -2, -2, -2, -2, -2, -2, -2, -2, -2, -2, -2, -3, -3, -3, -3, -3, -3, -3, -2, -2, -2, -2, -2, -2, -2, -2, -15, -15, -15, -15, -15, -15, -3, -3, -2, -2, -2, -2, -2, -2, -2, -2, -2, -3, -3, -2, -2, -2, -2, -2, -2, -2, -2, -2, -2, -3, -3, -3, -3, -3, -3, -2, -2, -2, -2, -2, -2, -2, -2, -2, -15, -15, -15, -15, -15, -15, -3, -3, -2, -2, -2, -2, -2, -2, -2, -2, -2, -2, -2, -2, -3, -2, -2, -2, -2, -2, -2, -2, -2, -3, -3, -3, -3, -3, -2, -2, -2, -2, -2, -2, -2, -2, -2, -2, -15, -15, -15, -15, -15, -15, -3, -3, -2, -2, -2, -2, -2, -2, -2, -2, -2, -2, -2, -2, -2, -2, -2, -2, -2, -2, -2, -2, -2, -2, -3, -3, -3, -2, -2, -2, -2, -2, -2, -2, -2, -3, -2, -2, -15, -15, -15, -15, -15, -15, -15, -15, -2, -2, -2, -2, -2, -2, -2, -2, -2, -2, -2, -2, -2, -2, -2, -2, -2, -2, -2, -2, -2, -2, -2, -3, -2, -2, -2, -2, -2, -2, -2, -2, -3, -2, -2, -2, -15, -15, -15, -15, -15, -15, -15, -15, -3, -2, -2, -2, -2, -2, -2, -2, -2, -2, -2, -2, -2, -2, -2, -2, -2, -2, -2, -2, -2, -3, -2, -2, -2, -2, -2, -2, -2, -2, -2, -3, -3, -2, -3, -3, -15, -15, -15, -15, -15, -15, -15, -15, -3, -3, -2, -2, -2, -2, -2, -2, -2, -2, -2, -2, -2, -2, -2, -2, -2, -2, -2, -2, -2, -2, -2, -2, -2, -2, -2, -2, -2, -3, -3, -3, -3, -15, -15, -15, -15, -15, -15, -15, -15, -15, -15, -15, -3, -3, -3, -2, -2, -2, -2, -2, -2, -2, -2, -2, -2, -2, -2, -2, -2, -2, -2, -2, -2, -2, -2, -2, -2, -2, -2, -2, -3, -3, -3, -3, -3, -15, -15, -15, -15, -15, -15, -15, -15, -15, -15, -15, -3, -3, -3, -2, -2, -2, -2, -2, -2, -2, -2, -2, -2, -2, -2, -2, -2, -2, -2, -2, -2, -2, -2, -2, -2, -2, -2, -3, -3, -3, -3, -2, -2, -15, -15, -15, -15, -15, -15, -15, -15, -15, -15, -15, -15, -15, -15, -3, -2, -3, -2, -2, -2, -2, -2, -2, -2, -2, -2, -2, -2, -2, -2, -2, -2, -2, -2, -2, -2, -2, -3, -3, -3, -3, -15, -15, -15, -15, -15, -15, -15, -15, -15, -15, -15, -15, -15, -15, -15, -15, -15, -3, -2, -2, -2, -2, -2, -2, -2, -2, -2, -2, -2, -2, -2, -2, -2, -2, -2, -2, -2, -2, -2, -2, -3, -3, -3, -3, -15, -15, -15, -15, -15, -15, -15, -15, -15};
	
	// Mean Face
	static const signed char mf[] = {1, 1, 1, 0, 0, 0, 0, 1, 1, 1, 1, 1, 1, 1, 1, 1, 1, 1, 1, 1, 1, 1, 1, 1, 1, 1, 1, 1, 1, 1, 1, 1, 1, 1, 1, 1, 0, 0, 0, 0, 0, 0, 1, 1, 1, 1, 0, 0, 0, 0, 0, 1, 1, 1, 1, 1, 1, 1, 1, 1, 1, 1, 1, 1, 1, 1, 1, 1, 1, 1, 1, 1, 1, 1, 1, 1, 1, 1, 1, 1, 1, 0, 0, 0, 0, 0, 1, 1, 1, 1, 0, 0, 0, 0, 1, 1, 1, 1, 1, 1, 1, 1, 1, 1, 1, 1, 1, 1, 1, 1, 1, 1, 1, 1, 1, 1, 1, 1, 1, 1, 1, 1, 1, 1, 1, 0, 0, 0, 0, 0, 0, 1, 1, 1, 0, 0, 0, 0, 1, 1, 1, 1, 1, 1, 1, 1, 1, 1, 1, 1, 1, 1, 1, 1, 1, 1, 1, 1, 1, 1, 1, 1, 1, 1, 1, 1, 1, 1, 1, 1, 0, 0, 0, 0, 1, 1, 1, 1, 0, 0, 0, 1, 1, 1, 1, 1, 1, 1, 1, 1, 1, 1, 1, 1, 1, 1, 1, 1, 1, 1, 1, 1, 1, 1, 1, 1, 1, 1, 1, 1, 1, 1, 1, 1, 0, 0, 0, 0, 0, 1, 0, 0, 0, 0, 0, 1, 1, 1, 1, 1, 1, 1, 1, 1, 1, 1, 1, 1, 1, 1, 1, 1, 1, 1, 1, 1, 1, 1, 1, 1, 1, 1, 1, 1, 1, 1, 1, 1, 0, 0, 0, 0, 0, 1, 1, 0, 0, 0, 0, 0, 1, 1, 1, 1, 1, 1, 1, 1, 1, 1, 1, 1, 1, 1, 1, 1, 1, 1, 1, 1, 1, 1, 1, 1, 1, 1, 1, 1, 1, 1, 1, 0, 0, 0, 0, 0, 0, 1, 1, 0, 0, 0, 0, 0, 0, 0, 0, 0, 0, 0, 1, 1, 1, 1, 1, 1, 1, 1, 1, 1, 1, 1, 1, 1, 1, 1, 1, 1, 1, 0, 0, 0, 0, 0, 0, 0, 0, 0, 0, 0, 0, 1, 0, 0, 0, 0, 0, 0, 0, 0, 0, 0, 0, 0, 0, 0, 0, 0, 1, 1, 1, 1, 1, 1, 1, 1, 1, 1, 1, 1, 0, 0, 0, 0, 0, 0, 0, 0, 0, 0, 0, 0, 0, 0, 0, 1, 1, 0, 0, 0, 0, 0, 0, 0, 0, 0, 0, 0, 0, 0, 0, 0, 0, 0, 1, 1, 1, 1, 1, 1, 1, 1, 0, 0, 0, 0, 0, 0, 0, 0, 0, 0, 0, 0, 0, 0, 0, 0, 0, 1, 1, 0, 0, 0, 0, 0, 0, 0, 0, 0, 0, 0, 0, 0, 0, 0, 0, 0, 0, 1, 1, 1, 1, 1, 1, 0, 0, 0, 0, 0, 0, 0, 0, 0, 0, 0, 0, 0, 0, 0, 0, 0, 0, 0, 1, 0, 0, 0, 0, 0, 0, 0, 0, 0, 0, 0, 0, 0, 0, 0, 0, 0, 0, 0, 1, 1, 1, 1, 1, 0, 0, 0, 0, 0, 0, 0, 0, 0, 0, 0, 0, 0, 0, 0, 0, 0, 0, 0, 0, 0, 0, 0, 0, 0, 0, 0, 0, 0, 0, 0, 0, 0, 0, 0, 0, 0, 0, 0, 1, 1, 1, 1, 0, 0, 0, 0, 0, 0, 0, 0, 0, 0, 0, 0, 0, 0, 0, 0, 0, 0, 0, 0, 1, 0, 0, 0, 0, 0, 0, 0, 0, 0, 0, 0, 0, 0, 0, 0, 0, 0, 0, 0, 1, 1, 1, 1, 0, 0, 0, 0, 0, 0, 0, 0, 0, 0, 0, 0, 0, 0, 0, 0, 0, 0, 0, 0, 1, 0, 0, 0, 0, 0, 0, 0, 0, 0, 0, 0, 0, 0, 0, 0, 0, 0, 0, 0, 1, 1, 1, 1, 1, 0, 0, 0, 0, 0, 0, 0, 0, 0, 0, 0, 0, 0, 0, 0, 0, 0, 0, 0, 1, 0, 0, 0, 0, 0, 0, 0, 0, 0, 0, 0, 0, 0, 0, 0, 0, 0, 0, 0, 1, 1, 1, 1, 1, 0, 0, 0, 0, 0, 0, 0, 0, 0, 0, 0, 0, 0, 0, 0, 0, 0, 0, 0, 1, 0, 0, 0, 0, 0, 0, 0, 0, 0, 0, 0, 0, 0, 0, 0, 0, 0, 0, 0, 1, 1, 1, 1, 1, 0, 0, 0, 0, 0, 0, 0, 0, 0, 0, 0, 0, 0, 0, 0, 0, 0, 0, 0, 1, 0, 0, 0, 0, 0, 0, 0, 0, 0, 0, 0, 0, 0, 0, 0, 0, 0, 0, 1, 1, 1, 1, 1, 1, 0, 0, 0, 0, 0, 0, 0, 0, 0, 0, 0, 0, 0, 0, 0, 0, 0, 0, 0, 1, 1, 1, 1, 0, 0, 0, 0, 0, 0, 0, 0, 0, 0, 0, 0, 0, 0, 0, 1, 1, 1, 1, 1, 1, 0, 0, 0, 0, 0, 0, 0, 0, 0, 0, 0, 0, 0, 0, 0, 0, 0, 1, 0, 1, 1, 1, 1, 1, 1, 1, 1, 0, 0, 0, 0, 0, 0, 1, 1, 1, 1, 1, 1, 1, 1, 1, 1, 1, 0, 0, 0, 1, 1, 0, 0, 0, 0, 0, 0, 0, 0, 1, 1, 1, 1, 1, 1, 1, 1, 1, 1, 1, 1, 1, 1, 1, 1, 1, 1, 1, 1, 1, 1, 1, 1, 1, 1, 1, 1, 1, 1, 1, 0, 0, 1, 1, 1, 1, 1, 1, 1, 1, 1, 1, 1, 1, 1, 1, 1, 1, 1, 0, 1, 1, 1, 1, 1, 1, 1, 1, 1, 1, 1, 1, 1, 1, 1, 1, 1, 1, 1, 1, 1, 1, 1, 1, 1, 0, 1, 1, 1, 1, 1, 1, 1, 1, 1, 1, 1, 1, 1, 1, 1, 1, 1, 1, 1, 1, 1, 1, 1, 1, 1, 1, 1, 1, 1, 1, 1, 1, 1, 1, 1, 1, 1, 1, 1, 1, 1, 1, 1, 0, 1, 1, 1, 1, 1, 1, 1, 1, 1, 1, 1, 1, 1, 1, 1, 1, 1, 1, 1, 1, 1, 1, 1, 1, 1, 1, 1, 1, 1, 1, 1, 1, 1, 1, 1, 1, 1, 1, 1, 1, 1, 1, 1, 0, 0, 1, 1, 1, 1, 1, 1, 1, 1, 1, 1, 1, 1, 1, 1, 1, 1, 1, 1, 1, 1, 1, 1, 1, 1, 1, 1, 1, 1, 1, 1, 1, 1, 1, 1, 1, 1, 1, 1, 1, 1, 1, 1, 0, 0, 1, 1, 1, 1, 1, 1, 1, 1, 1, 1, 1, 1, 1, 1, 1, 1, 1, 1, 1, 1, 1, 1, 1, 1, 1, 1, 1, 1, 1, 1, 1, 1, 1, 1, 1, 1, 1, 1, 1, 1, 1, 1, 0, 0, 0, 1, 1, 1, 1, 1, 1, 1, 1, 1, 1, 1, 1, 1, 1, 1, 1, 1, 1, 1, 1, 1, 1, 1, 1, 1, 1, 1, 1, 1, 1, 0, 0, 1, 1, 1, 1, 1, 1, 1, 1, 1, 0, 0, 0, 0, 1, 1, 1, 1, 1, 1, 1, 1, 1, 1, 1, 1, 1, 1, 1, 1, 1, 1, 1, 1, 1, 1, 1, 1, 1, 1, 1, 1, 0, 0, 0, 0, 0, 1, 1, 1, 1, 1, 1, 0, 0, 0, 0, 0, 0, 1, 1, 1, 1, 1, 1, 1, 1, 1, 1, 1, 0, 1, 1, 0, 1, 1, 1, 1, 1, 1, 1, 1, 1, 1, 1, 0, 0, 0, 0, 0, 0, 0, 0, 1, 1, 0, 0, 0, 0, 0, 0, 0, 0, 1, 1, 1, 1, 1, 1, 1, 1, 1, 1, 1, 0, 1, 1, 1, 1, 1, 1, 1, 1, 1, 1, 1, 1, 1, 1, 0, 0, 0, 0, 0, 0, 0, 0, 0, 0, 0, 0, 0, 0, 0, 0, 0, 0, 0, 1, 1, 1, 1, 1, 1, 1, 1, 1, 0, 0, 1, 1, 1, 0, 1, 1, 1, 1, 1, 1, 1, 1, 1, 0, 0, 0, 0, 0, 0, 0, 0, 0, 0, 0, 0, 0, 0, 0, 0, 0, 0, 0, 0, 1, 1, 1, 1, 1, 1, 1, 1, 0, 0, 0, 1, 1, 1, 0, 0, 1, 1, 1, 1, 1, 1, 1, 1, 0, 1, 0, 0, 0, 0, 0, 0, 0, 0, 0, 0, 0, 0, 0, 0, 0, 0, 0, 0, 0, 1, 1, 1, 1, 1, 1, 1, 0, 0, 1, 1, 1, 1, 0, 0, 0, 1, 1, 1, 1, 1, 1, 0, 1, 1, 1, 0, 0, 0, 0, 0, 0, 0, 0, 0, 0, 0, 0, 0, 0, 0, 0, 0, 0, 1, 1, 1, 1, 1, 0, 0, 0, 0, 1, 1, 1, 1, 0, 0, 0, 0, 0, 0, 0, 0, 0, 0, 1, 1, 1, 0, 0, 0, 0, 0, 0, 0, 0, 0, 0, 0, 0, 0, 0, 0, 0, 0, 0, 0, 0, 0, 0, 0, 0, 0, 0, 0, 1, 1, 1, 1, 1, 0, 0, 0, 0, 0, 0, 0, 0, 0, 0, 0, 0, 0, 0, 0, 0, 0, 0, 0, 0, 0, 0, 0, 0, 0, 0, 0, 0, 0, 0, 0, 0, 0, 0, 0, 0, 0, 0, 0, 1, 1, 1, 1, 1, 0, 0, 0, 0, 0, 0, 0, 0, 0, 0, 0, 0, 0, 0, 0, 0, 0, 0, 0, 0, 0, 0, 0, 0, 0, 0, 0, 0, 0, 0, 0, 0, 0, 0, 0, 0, 0, 0, 0, 1, 1, 1, 1, 1, 0, 0, 0, 0, 0, 0, 0, 0, 0, 0, 0, 0, 0, 0, 0, 0, 0, 0, 0, 0, 0, 0, 0, 0, 0, 0, 0, 0, 0, 0, 0, 0, 0, 0, 0, 0, 0, 0, 1, 1, 1, 1, 1, 1, 1, 0, 0, 0, 0, 0, 0, 0, 0, 0, 0, 0, 0, 0, 0, 0, 0, 0, 0, 0, 0, 0, 0, 0, 0, 0, 0, 0, 0, 0, 0, 0, 0, 0, 0, 0, 0, 0, 1, 1, 1, 1, 1, 1, 1, 0, 0, 0, 0, 0, 0, 0, 0, 0, 0, 0, 0, 0, 0, 0, 0, 0, 0, 0, 0, 0, 0, 0, 0, 0, 0, 0, 0, 0, 0, 0, 0, 0, 0, 0, 0, 0, 1, 1, 1, 1, 1, 1, 1, 0, 0, 0, 0, 0, 0, 0, 0, 0, 0, 0, 0, 0, 0, 0, 0, 0, 0, 0, 0, 0, 0, 0, 0, 0, 0, 0, 0, 0, 0, 0, 0, 0, 0, 0, 0, 0, 1, 1, 1, 1, 1, 1, 1, 1, 0, 0, 0, 0, 0, 0, 0, 0, 0, 0, 0, 0, 0, 0, 0, 0, 0, 0, 0, 0, 0, 0, 0, 0, 0, 0, 0, 0, 0, 0, 0, 0, 0, 0, 0, 1, 1, 1, 1, 1, 1, 1, 1, 1, 0, 0, 0, 0, 0, 0, 0, 0, 0, 0, 0, 0, 0, 0, 0, 0, 0, 0, 0, 0, 0, 0, 0, 0, 0, 0, 0, 0, 0, 0, 0, 0, 0, 0, 1, 1, 1, 1, 1, 1, 1, 1, 1, 1, 0, 0, 0, 0, 0, 0, 0, 0, 0, 0, 0, 0, 0, 0, 0, 0, 0, 0, 0, 0, 0, 0, 0, 0, 0, 0, 0, 0, 0, 0, 0, 0, 0, 0, 1, 1, 1, 1, 1, 1, 1, 1, 1, 1, 1, 0, 0, 0, 0, 0, 0, 0, 0, 0, 0, 0, 0, 0, 0, 0, 0, 0, 0, 0, 0, 0, 0, 0, 0, 0, 0, 0, 0, 0, 0, 0, 0, 1, 1, 1, 1, 1, 1, 1, 1, 1, 1, 1, 1, 1, 0, 0, 0, 0, 0, 0, 0, 0, 0, 0, 0, 0, 0, 0, 0, 0, 0, 0, 0, 0, 0, 0, 0, 0, 0, 0, 0, 0, 0, 0, 0, 1, 1, 1, 1, 1, 1, 1, 1, 1, 1, 1, 1, 1, 0, 0, 0, 0, 0, 0, 0, 0, 0, 0, 0, 0, 0, 0, 0, 0, 0, 0, 0, 0, 0, 0, 0, 0, 0, 0, 0, 0, 0, 0, 1, 1, 1, 1, 1, 1, 1, 1, 1, 1, 1, 1, 1, 1, 1, 0, 0, 0, 0, 0, 0, 0, 0, 0, 0, 0, 0, 0, 0, 0, 0, 0, 0, 0, 0, 0, 0, 0, 0, 0, 0, 0, 0, 0, 1, 1, 1, 1, 1, 1, 1, 1, 1, 1, 1, 1, 1, 1, 1, 0, 0, 0, 0, 0, 0, 0, 0, 0, 0, 0, 0, 0, 0, 0, 0, 0, 0, 0, 0, 0, 0, 0, 0, 0, 0, 0, 0, 0, 1, 1, 1, 1, 1, 1, 1, 1, 1, 1, 1, 1, 1, 1, 1, 1, 0, 0, 0, 0, 0, 0, 0, 1, 1, 1, 1, 1, 1, 1, 1, 1, 1, 0, 0, 0, 0, 0, 0, 0, 0, 0, 1, 1, 1, 1, 1, 1, 1, 1, 1, 1, 1, 1, 1, 1, 1, 1, 1, 1, 1, 0, 0, 0, 0, 0, 0, 1, 1, 1, 1, 1, 1, 1, 1, 1, 1, 0, 0, 0, 0, 0, 0, 0, 0, 0, 1, 1, 1, 1, 1, 1, 1, 1, 1};
	// This will hold our principal components
	static int pc[] = {0,0,0,0,0,0,0,0,0,0}; //Multiply the value you want by 10000
	//This will hold the final image
	static int img[2200];
	printf("STARTED LOOP");
	while(1){
		if((PEEK(197) != 64)){
			curr = cgetc();
			if((curr == ' ') || (curr == '0')){
				if(curr == '0'){
					pc[0] = 0;
					pc[1] = 0;
					pc[2] = 0;
					pc[3] = 0;
					pc[4] = 0;
				}else{
					pc[idx] = value;
				}
				printf("STARTED GENERATING FACE");
				// Now we need to dot the principal components and the weights
				// We're also gonna find the mean so we can use it as our threshold value
				printf("%d,%d,%d,%d,%d\n\n", pc[0], pc[1], pc[2], pc[3], pc[4]);
				for(i=0;i<2200;i++){
					temp = 0;
					temp += (w0[i]*pc[0]);
					temp += (w1[i]*pc[1]);
					temp += (w2[i]*pc[2]);
					temp += (w3[i]*pc[3]);
					temp += (w4[i]*pc[4]);
					
					//printf("%d\n",temp);
					
					temp += b[i];
					//printf("%d\n",temp);
					
					
					temp = temp/10000;	// Rescale the feature vector
					
					
					
					// Apply ReLU
					if(temp < 0){
						temp = 0;
					}
					// Add mean face
					temp += mf[i];
					img[i] = temp;
					// Update mean
					mean += temp;
				}
				
				
				// Get mean
				mean = mean/2200;
				
				
				// Setup tgi
				tgi_load_driver(tgi_stddrv);
				tgi_install(tgi_static_stddrv);
				tgi_init();
				tgi_clear ();
				tgi_setpalette (Palette);
				
				
				clrscr();
				// Display Image
				
				for(i=0;i<200;i+=4){
					for(j=0;j<176;j+=4){
						if(img[((i*44)+j)/4] > mean){
							//cputcxy(j+9,i,35);
							tgi_setcolor(0);
							tgi_bar(j+72, i, j+75+10, i+3);	// Will fill screen
						}
						else{
							//cputcxy(j+9,i,160);
							tgi_setcolor(1);
							tgi_bar(j+72, i, j+75+10, i+3);	// Will fill screen
						}
					}
				}
			}
			else if((curr == '1')){
				idx = 0;
			}
			else if((curr == '2')){
				idx = 1;
			}
			else if((curr == '3')){
				idx = 2;
			}
			else if((curr == '4')){
				idx = 3;
			}
			else if((curr == '5')){
				idx = 4;
			}
			
		}
		
		// Read controller input and convert to appropiate range
		// First get average value
		value = 0;
		for(i=0;i<100;i++){
			pot = PEEK(54297);
			//pot = 80;
			value += pot;
		}
		// Scale values to be between -200 and 200 approximately
		value = value/100;
		value = value*15;
		value = value/10;
		value -= 191;
		printf("Value: %d",value);
		
		
	}
    return EXIT_SUCCESS;
}
